-0.199286171163 -0.518132996214 0.000942441890818 1.4580183489 0.615312475516 0.182617885599 0.107525293287 0.0469847148595 -0.904739403843 1.23828343893 -0.0649478272581 -0.0602334173181 -0.647560559607 -0.688496377976 0.0314573556618 -0.228419663358 0.515415271226 0.159441270955 -0.691517703002 -0.158130384876 -0.197582113602 1.00322372214 -1.01552867524 0.140737830578 -0.467382028982 -0.288923288928 -0.05169644149 -1.07030877409 0.20463372428 0.926836061643 1.68836593299 -0.480918328642 -0.312477752313 0.0245533228171 -1.95235191901 -1.32454682542 0.4794435419 1.33194062433 -1.4848660015 -2.0944036626 -0.97114519672 -1.66313479736 1.15473215939 0.321710381517 -2.06411748446 0.113172322685 0.930030856557 0.00660701492706 -0.70169503827 0.632939399842 -0.939607811501 -0.660825578357 1.47664904019 0.390175320568 -1.60246688916 -0.450630883408 0.139258213657 -0.417221774674 -0.149046135143 -0.264210048031 1.42155169537 -2.85421915245 0.226024065036 0.240145769468 1.6644987529 0.532119465099 0.579855100951 -0.490898689234 0.614793768208 -0.626992902291 -0.758131780178 -1.16804543987 -3.31167725331 -0.953697844956 -0.692094374918 1.04962551276 -2.65512101622 -0.0723760628965 0.58135161794 0.326679832194 0.487638165975 1.91120432688 -0.682055047036 0.0426800525669 -0.751795754265 -1.81999052189 -0.0868481012844 -0.669802417515 1.50637184391 0.841752121101 1.72628514706 -0.452111763282 -1.07134228806 0.23311275172 0.810908914869 0.345473325424 -1.2400970769 0.0591774315276 -0.555114146959 1.57708911651 -0.262852799078 1.63280097351 -0.297738374974 1.28374948828 -0.518040875493 0.363752937574 -1.47512569855 -0.120282409631 0.0480410720329 -0.438192255319 0.259934700361 -0.505235969811 0.26409728909 -0.238049541282 0.309663655506 0.199644558833 -0.350491516879 -1.9776284188 1.17914000041 -0.968409676549 -0.0405591623108 2.71734990414 -0.605453886202 1.08877420547 -0.357441511686 0.259266243718 -1.10586090053 -0.0592437736326 -1.8792400958 -0.364072752922 0.575908040612 -0.538424406134 0.134487173328 -0.493611106237 -1.85692715957 0.922180772002 0.980432639588 -0.6356021964 1.41780239543 0.352316977822 0.300780970824 1.33090574145 0.677676306296 -0.983900534135 0.661232548662 -0.424293655222 -1.04335297847 2.28832232902 -1.75973671308 -1.7721317489 0.289700963509 1.1241982767 -0.107360840034 1.13013026524 0.746043255915 -0.782557829224 -0.110276240271 0.153746384828 1.46131782046 -0.00257097956731 -0.352940979344 1.64106754286 1.21983183186 0.689937511805 -0.767976506539 0.601200273028 -1.00319091087 -0.809573185489 -0.869307335943 1.4547680106 -2.09637510598 0.384397616282 0.16220169439 -1.2823021897 1.76850644258 -0.432481349819 -0.597123432364 -0.649103748418 0.413286170748 0.218064834052 -0.628232778914 0.821377466488 1.14518580684 0.760020655243 -1.62897840011 0.132216062103 -0.227508795834 -1.96266578575 -0.468867546029 0.366099354156 0.579896748938 -0.198703702116 -0.475911173987 -0.480622770939 1.51555201731 1.0155931169 -0.622454030183 0.987731941288 -0.583733408019 -0.441845318198 1.00001948432 1.02713814835 -1.42067267096 -1.44480818111 -0.197920300273 -0.682542472208 0.00737658812777 -0.638850553319 0.847541833586 -0.155718332965 -0.784266069908 -0.109332138521 -1.83529770137 0.0441742091144 1.20528965571 -1.77280629025 -0.996799849851 1.34584222189 1.71522793589 -0.126775423019 1.68009221151 0.883462745282 0.0951128361886 1.2121998246 1.55851223548 0.315438352909 0.586020266607 1.00676240249 0.590904984334 -1.63429016728 -0.230998349214 0.715388998048 -0.224676019645 0.756716162844 -0.707674288458 -0.415511309349 0.463041926373 0.958886201623 2.05414781903 -0.832472248085 -0.78594437346 0.00763704800749 0.322730362488 0.647492959211 1.02957360031 -1.04032934644 -0.477784846009 -1.59960844076 -0.784196273081 0.486524326351 0.443782100279 -0.987467212397 0.225876509013 0.582155675769 0.271465769809 2.15112124472 -1.80206435923 0.775389630408 0.624469431284 -0.118098229755 -0.72357857543 0.32266148589 1.22893440414 -0.0137524215973 1.99997419798 0.66435078917 -0.938313810132 -1.27363956035 0.247891281803 -0.488644242658 0.163713236594 1.36496586879 -0.219079861457 -0.548590056927 0.114403570795 1.0932865927 1.04971005005 -1.33483343922 1.17928880247 -1.04863023456 -1.05441664651 -0.475933895029 0.619364490943 1.47785467947 -1.18927850111 0.108044819688 0.325393051567 0.734996677247 -0.835581610849 -0.199965408867 -0.297655155701 0.638982274046 0.0835337173224 -0.594690999469 -1.0302071072 -1.75730364418 0.744968851009 -0.0721214581426 -0.00784410806147 0.175962549009 -1.0200716752 -0.305753220066 -0.743559026289 0.0418301109276 0.283936226255 0.260575106794 -0.0769507027439 -0.621794845177 -1.20311374559 0.44933067532 -1.20686098252 0.105782041022 1.76069027743 0.0832203049213 -1.90929747847 -1.18295696799 0.16578646796 0.110965254239 -0.912380358988 1.32988246051 -0.151685250642 0.0485145718987 -0.538811540994 0.67469020997 1.06137494865 -0.130120962317 0.280714759945 -1.69568778853 -0.0965758740695 -0.612688105399 -0.738536838256 -0.196474859327 -2.17180788022 -0.448908376016 1.25408867403 -1.63896939241 1.49479449533 -1.34117844561 0.456649003952 -0.730841916347 1.5291846855 0.386699985725 0.0752039607086 0.303919702292 -0.294723248217 0.846181605815 2.23223002903 0.12117133428 -0.304213551175 -0.320603113595 0.177917168676 -0.844907441595 -1.13906269728 -0.800682341466 1.22710466469 -0.551142131163 -0.455028177291 -1.40120399717 0.554234183618 1.02595038424 0.374211386564 -0.012032327001 0.0679679687147 -0.796629976626 -0.571137202811 -1.9475835923 0.685766893932 -0.796575407598 0.295448956917 -0.123987088048 0.646522049454 0.566070548638 -0.648433853446 1.83436286922 -1.44264020007 -0.636729380236 -0.364562808267 -1.6713168307 0.465149316384 0.873729083126 -0.476526069859 -0.866054341131 0.676254744644 -2.20833930512 -0.833232470471 -1.36533743365 -1.1159558383 0.0875254832195 -0.522784009808 -0.261483525797 0.953350076805 -1.0737508907 0.727246431142 0.101166584809 -1.12069575447 0.19656899445 -0.51973413814 -1.6116024051 -1.28480597918 -2.02435387833 -0.145404214331 1.58869359724 1.02250275552 0.482606562823 -0.380472388978 -0.63455834676 1.46232474965 0.856388879965 0.432993828585 -0.794555434997 -0.220712051775 -0.250171619186 -0.643871187407 0.0530027074396 1.18966582695 -0.817294092526 -0.479414245875 1.65485330861 -0.480448244218 -0.521171361356 1.49831867953 1.07576136824 -0.0809494628222 -0.783126977142 0.561337355245 -1.82537611942 -1.20486018699 -1.3234662322 -0.399429776392 -0.50574273339 0.426474307517 -1.02633281149 1.57637768573 -0.403835126491 1.96506618305 1.66602208392 -1.61648813514 0.620108145788 0.798950619132 0.0727118183792 1.91601957088 -0.771322767895 2.27306159145 -2.14529192128 0.445554810395 -0.82594582339 0.228097397278 -0.5493612977 2.00059697961 0.113984548735 0.300183711335 1.52956290199 -1.03647879425 1.61264005186 -1.277296824 -1.82090990544 0.963997859539 -2.54959514049 1.02228840476 -1.0834552516 -0.427072184799 0.393065246484 -1.56216418809 0.510237450811 -1.04264742171 0.0886040765048 0.179711521267 -0.870436530188 1.99608587589 0.120448034065 0.854923624468 -0.246546271528 -0.684541130502 0.535114752397 1.19634816098 1.58447314146 1.57380520862 0.78451140056 -1.1063404166 0.268386625659 0.0731088678847 -2.15859355794 -1.89839127057 1.47416816033 0.437406941216 -0.74643996347 1.05753778478 2.43518017133 0.529156232482 1.51512073691 0.581246467321 1.04270804964 2.08052298312 0.305563139965 1.27878674526 -0.352852557144 -0.53268735019 -1.06148735139 0.661179247206 -0.256089578917 -2.95352941114 -1.26809623141 0.77681960692 -0.322088444135 0.903926947209 0.524350897875 1.1541053791 1.00900884669 -0.0746778028226 -0.478684619165 0.155201020628 0.88346636719 -0.16616116768 1.51849925885 -0.0125050819165 -1.69363501027 0.0530756683515 0.468593228489 -1.39965109063 0.331672393984 1.46149762775 0.400432607419 1.22031276311 0.712245494204 0.103007187611 0.484313189495 1.35381117363 -0.766018225418 0.284608789593 -0.443759090746 -0.93510233206 0.000387975854455 0.0549881350476 0.815141714566 0.444234435627 -1.37262969579 -0.487315022771 0.0628756084115 -0.371151903477 -1.16110471645 1.74635335539 -0.453187038588 -0.0683325074366 -1.81187250986 0.817130051047 -0.495165426779 -2.14815332656 0.134016355918 -0.429458269587 -0.0740698481766 -0.359463072444 -0.970511850924 -2.0334036005 -0.772748787862 0.425243962361 0.348657967014 1.55622378781 -0.0433578087974 -1.1649083481 0.271413180221 -0.347506726844 0.00807008219996 -0.0659354279808 1.04826094735 -0.951199925761 -0.154308490953 1.28719831077 0.321184975112 0.903030660597 0.929369584709 0.611742246704 -1.32315208141 -0.504698400527 0.514058248794 0.0664417652494 -1.03563594547 0.161861292911 -1.04037326316 -1.38494178955 -0.00556531303932 -1.2528187805 0.243167262698 -0.0570140504845 0.962001670431 0.961731749578 1.17795396298 -1.35896329335 -0.143952376693 -0.364688982359 1.49745127853 -0.900048886858 1.67421462722 -0.0640589672864 0.440682306619 0.367280228767 0.46302687325 0.527787997677 -0.717046695621 -0.276284293514 -0.0160742988996 0.27981083966 1.57479158343 -0.586993856005 -1.33261687299 -0.555906260111 3.15721773649 -1.21714153296 0.21174762257 -1.72862687073 1.39948674891 -1.11723824152 1.06882532515 -0.862930084942 0.0260455491921 -1.00847910413 -1.29087766598 1.85966324997 0.714523338862 0.597438454409 -1.38165117704 -0.132518322087 -0.95670658708 -0.452700367311 -0.766211489909 -0.697206403544 1.96389961731 -0.426746889256 -1.47827501922 1.93606700061 -0.754893332538 -0.444708227208 -0.0238972817416 -0.156524120412 -0.940773595272 -0.33283778307 0.142891151901 -0.860858312193 1.45201098809 -0.727495759156 0.477673560925 -0.522471409588 -0.907633842314 -1.33657283014 -0.868321657424 1.6213863966 -1.52673591835 -1.69058971221 -1.48657371696 0.516487157438 1.45995695698 0.0759472688472 1.3347540278 -0.153086204029 0.477632636691 -0.0997109637178 0.350827382981 -0.283351458529 0.0380932904044 0.228503888029 -0.141374067407 -1.07284509442 0.0793543448584 -0.78497984165 0.682050217044 1.30323583606 -0.520891767608 -0.0216897021715 0.382054630865 0.562003628265 0.461748032248 0.502826338643 -1.32728297218 -0.566552946604 -1.23021865496 -0.677722097924 0.989262067102 2.286692406 -0.0108868476658 -0.161627866574 0.788858492159 1.8685396889 -0.00866372341468 0.864453816773 0.927234337081 -1.38060557138 -0.757586257392 -1.31851983659 1.16797549901 -2.15405451297 1.0129571304 0.0455408213114 -0.328302225194 -1.03557005709 1.42571170301 1.59162711336 -0.273328454443 -0.82754295568 -1.90950700621 -1.38758832656 -1.9298570294 0.0860787640666 2.12199033802 0.118701338616 -0.205457503751 0.868568534141 0.427379559994 -0.00999159428109 0.178387285231 -0.0815790449983 -1.30810193665 0.564068182053 1.05779721769 -0.992648657854 -1.28813814262 -0.817463853972 -0.189374088136 -1.25659801255 0.885799741645 -0.787321979287 0.817242897968 -0.13037311935 -1.4287252986 -0.0363661815064 -0.548057978801 1.38893151053 1.52285328578 -0.233635684351 0.353974673606 -0.328994562694 0.757793765339 0.634936018176 0.726624854469 -0.384018775014 0.291434757093 -0.546233949562 -1.27715392782 -0.0483136559743 -1.37943142822 0.174904646214 -0.309542357497 0.16984850782 2.72044213045 -1.08057917404 0.871342414814 0.0177794861006 0.898286867707 -0.688798743493 1.13781837848 -0.888740881077 -2.26753245768 1.18309815726 0.789648395244 0.997336269812 -0.630939438335 -0.798391043506 -0.43362875314 0.348708111609 -1.06146219307 2.20046105235 0.89968449017 0.0710840291784 0.0325781049531 1.07348022535 -0.522110329693 -0.246389302551 -0.315217959833 -0.0689945305456 -1.22635115771 1.78778931827 -0.920497508118 -0.142768006286 -0.883787353084 0.155146382422 -0.61842894622 -0.0183543502505 0.179700558505 0.349835850715 -0.311867830443 0.399224990224 -1.57979270303 1.35396453389 0.956859153101 1.65903094147 1.00838897449 1.09019953605 0.339290192827 0.202407730981 
1.3586828066 0.573300404302 -2.0699939607 0.271432312727 0.412521478781 2.05223866304 -0.000421066910891 0.160599169192 0.51966018538 -0.0650653124648 1.01870622789 0.315831051361 -1.49127937552 -0.282677198272 2.07674442014 -0.607629024789 0.164790493245 1.4979890137 -0.987282119503 -1.13555110888 0.146330787114 -0.935296633411 0.255620835851 0.601309740446 1.96049833553 0.763500356782 1.54956094141 0.396297364964 0.0665917214673 0.920394632886 1.70429334187 1.06863071326 -1.83349044698 0.22899270472 -1.4084382486 -1.06890343272 0.172247889817 0.754139241648 0.518090691549 0.432347518472 -0.571032727031 0.592053234492 0.0109148177323 -0.0791132911418 0.318553270781 0.130031896156 0.730134938005 0.312649091894 0.248164542194 -0.508322749309 0.995774941705 -0.984772780209 -0.240179934091 0.462775020748 0.842699123411 -0.2465825468 2.28972937233 -0.374909023624 0.650986339802 -0.217483512148 0.943312412037 -1.77285610376 1.03537383133 -1.1508659004 -2.05684804198 0.107270146 0.0371205925291 -2.14718840887 -1.15274144775 0.35992208438 -2.0378639972 1.21391618891 -0.15325673785 -1.36474853813 -0.309297283445 0.605031468053 -0.0201598741728 0.601141493651 2.09864163209 -0.66302855981 -0.211172127516 0.043229511399 0.00312755912979 1.74485310847 0.483727417817 -1.77155889222 0.112479585338 1.22050268328 -0.00758431686113 1.48949636034 1.76186057156 0.220895888207 1.22295553276 0.29067038671 0.818977827354 1.03569492013 -0.346634571588 0.503095141455 -0.977566747302 1.28028800625 -0.981402707674 -0.014992463737 -1.61650697464 2.2370243621 -0.474123583456 -0.661833066064 0.889140891224 -0.84197542445 0.0837056547586 -0.100646553671 -1.07986823775 -2.26271034485 -0.54266346313 -1.77770682978 1.20964803072 -0.900617474753 -0.470342581057 0.0491280505401 -1.46594025177 0.772838494461 1.07000632947 -0.478233520301 -1.24901590912 -0.404153779728 -1.17630831269 0.776595626414 -0.368641293935 -0.647871742132 -1.86234660992 -0.133311523106 0.770609489929 -1.66350681569 0.735792487728 -0.833616334114 -0.549494970812 -1.13804361086 -0.374327651515 -0.445757357387 0.757949294333 -0.0228007015111 -1.0642474975 -1.28581238564 -0.256950926132 -1.70739521081 -0.265998844386 0.879947085584 1.48577153688 0.440819725493 -0.133802619117 0.907026597891 -1.00783965304 -0.169840980375 -0.239368056213 0.939478142774 0.0793430493676 -1.31500572168 1.11883645824 0.732310901764 1.86747328888 -1.01635824423 0.323980276384 0.867524847678 1.12292091247 -1.06545699652 -0.283601862502 -0.0563328305079 -0.0266303946283 0.1085594067 -2.14465014206 0.0628869703219 -1.50947317444 0.464406909542 -1.65267807378 1.18737544809 -0.566836560674 1.67227182647 0.566431418805 -0.490458692496 1.05720171759 -0.164563035023 -2.48168103318 1.60743379082 0.0240411059759 -1.39624134911 0.327000413521 -1.12646737837 0.630412774914 -0.201124829231 -0.192242194631 1.23332361752 -0.808896449899 -1.92329588292 1.07589596904 -1.89217994541 0.129589682329 -0.193624690674 -1.74120216789 0.98772827267 -0.0624704868589 -0.843039080908 0.275481028999 0.469080160499 1.02467011707 -0.311614336885 -0.269195431296 1.31641477158 -0.0497057643736 0.0270676105714 -1.91956594877 -0.820196405359 -0.360331699368 -0.0442183440371 1.82423335003 -2.76785108523 0.510298530006 0.0422233930155 -0.693961093419 -0.522441761062 0.203265110482 -0.0568083239881 1.12312867156 -0.04396202031 1.67683936337 -0.265669843055 -1.75886205654 -0.198231565564 -0.71622682361 -1.3029549317 2.76759303377 0.259093660785 -0.154749401257 -0.686600014464 0.236157987205 -1.12554648771 0.77688398297 0.601148688156 1.88181087188 -1.95274958754 -0.538128211538 -1.62524397455 1.39373622448 -0.797913061192 0.252288125344 -0.00944848555355 1.40700304367 -0.652869178811 0.162720587592 -0.536839109496 -0.309696865504 0.167616970899 0.458537364097 0.292331745783 0.674536543452 0.984945521645 0.512316511647 0.532236045926 0.132047207662 -1.01524776048 -0.181864147748 -0.518443615796 -1.58483107916 -0.809235045655 -2.25430185289 -0.0358718703227 -0.70996557387 -1.21076582064 -0.106391981896 -1.93070596074 0.379869696825 -0.889911893031 -2.0212755801 -0.127622974144 0.790165915491 0.460469791924 0.182497042535 -1.14490386217 -0.307824265298 0.360664213818 0.029318239596 0.908982390542 1.02389241859 -0.942561322006 0.191370303015 1.22340835184 -1.41011289328 0.11373982238 1.83383436147 -0.56096565463 0.291425721854 0.759128866863 0.830800801743 1.40237483977 -1.19720447155 0.913265184122 0.297752043036 0.526555863558 0.99343997549 -0.593740416713 -1.68522001233 -0.700402896382 0.234328949665 -1.40410153816 -1.36963857829 -2.15580362352 0.19291442496 -1.0890590834 -0.31470176481 -0.387213760313 -0.351003413503 -1.16771900101 -1.57480295265 1.24796825825 -1.77348644167 0.742815032647 -0.844700277836 0.881841084259 -0.325620625786 -1.11314449739 0.433592419621 -1.56682630582 0.733958491138 0.333696604512 -0.386584569096 -3.02048676231 -1.41547241575 -2.62159314905 1.04063570831 -2.19709803337 1.0777067368 -0.279677901236 -0.932913036649 -0.0403212524126 0.621913350407 -0.204986132444 2.13957936826 2.68642059426 0.0282847089716 -0.245295483631 2.88781297887 -1.06852170544 -0.379819606939 -0.366062028164 -0.580934673597 0.92874434882 0.134371638024 0.503379985807 1.02539962157 -0.485790283242 -1.02981827393 1.07319223905 -0.361868955799 -0.0202940686875 0.384027226048 -1.61123899466 0.0337437809246 -0.195096781282 -0.43091684434 1.13084960151 0.407685356181 -0.348932488822 -0.328140705617 0.961497028628 -1.3457373683 -1.2922453769 -0.467594767112 -0.895174577397 0.843912680568 1.43739706702 -1.2524902621 0.46788473247 1.28330851307 -1.80057452596 0.0762503787157 0.768467842061 2.03078508534 0.2631453036 2.06403364797 -0.767858613852 -0.415605361052 0.935780360697 -0.0347350778832 -0.0267990616977 0.185940715703 1.0210114583 -0.408813694168 -0.581218482142 0.391037899139 -0.362941689241 -0.993777041641 -0.740946444159 1.39832425584 -0.743905644906 1.25817931945 1.19531675541 0.351915963957 -1.45895301113 -0.737309092087 -1.69183513618 -0.86874767995 -1.56771212064 -3.15809887881 -0.98693281086 -1.55538090824 1.30297115464 0.345105108314 0.57937818439 -0.342593680943 -0.392165123067 0.997313001809 -1.23140151734 1.27848284011 0.199575099447 -0.558778984841 0.945409615058 1.60951925104 -0.358237652943 0.682091186105 -0.986857746202 0.186673496102 0.381953224346 0.6767848716 -1.28435640708 0.563259460108 -0.826965702995 0.892246930944 0.205721881881 -0.599730554367 0.414226757809 -0.354651687273 0.350382168372 0.488179525887 1.17479676029 1.20293972266 -1.66976198279 0.191114319259 -0.806565134972 -1.25357460474 -0.179814865491 -0.596102419683 -1.06310440334 -0.747853197505 1.56820350763 -0.62594303104 0.549413781721 -0.119399286876 -1.43862960218 -0.856421178833 -0.908643600196 -0.471728672967 2.27380868372 1.28024458241 -0.941116650811 0.11827431307 -0.7399592366 -0.118332930074 0.450394005859 -1.12002836629 -0.534182506189 0.640191960564 0.338023125806 1.3696122942 -1.01690688508 1.12835703943 -1.09932887893 -0.646071930673 1.53476673016 0.27860365941 -0.0125805159687 -1.05544157357 -0.860410688111 1.98855836324 -0.693592978175 1.24155003153 -1.63049458259 -0.919747809618 0.353969945404 -0.128992665129 -1.82749001096 -0.691426501017 -0.456540841982 1.51488192529 3.55329691594 0.615321258824 -0.943701995044 -0.164816234033 -0.654558248416 -0.138770107883 -2.0753498645 2.33099896518 0.303592956855 -2.23377242558 -1.28999683458 -1.4571733142 0.0506231100533 -0.769885490805 1.01660833946 2.28577303008 0.326887096457 -1.84213183974 -0.905346988763 -1.01448785573 1.26469206478 -0.613105972108 -1.30410488221 -0.256402998103 -0.738776895899 -0.0791603518603 0.107071794517 0.109241775111 -0.159964897759 -0.32313586933 -1.21511934128 -0.220978579138 -0.0190829688832 0.413884954113 1.0873991542 0.552230412359 -0.868655445055 -0.0492383899859 -1.03225657141 -0.719596683492 -0.130696368634 -2.3848744562 -0.69436802151 0.269736211823 0.152530537839 1.70597526039 0.686769409092 0.719117542395 -0.127047178436 -0.324981643571 1.54492301887 -1.05358980519 2.17836616008 1.43936969087 -0.161297131398 -0.65482114479 -0.129329452074 -0.734354706928 0.940280615246 0.0551883049442 -1.04825268452 0.578859510123 -0.233254292697 -0.591618161643 -0.472184925062 -1.18715293414 0.684390585735 -2.66327065996 -0.434692560665 -0.578273504855 1.06135845052 -1.05168893904 0.452003852687 0.888796567275 0.0569895425025 -0.914289202647 0.388572742431 1.00967634678 -1.27684361542 -0.257078192872 0.251851043113 -0.0837349826993 1.29150103454 -0.0942407865414 -0.0798152312349 -0.00341543324313 1.08135475273 0.32056951086 1.48754210165 1.29468971704 -0.252520617676 1.24548126877 0.870256870608 -0.271027835472 0.036796046447 0.347106109656 -1.36795409807 1.2618499772 0.921124979821 0.336633392475 1.23609122995 0.838391688526 -0.0342364684473 0.35321084569 -0.843831848594 -0.181836239771 2.05273752894 0.480902850505 -0.198567640117 1.56885411066 -0.938020016368 0.590884568952 -0.406041748489 -0.756744066781 0.93899678529 0.53845964788 -1.91635891203 0.254114238944 -1.04149035113 -0.422183534981 -1.16927143641 -0.850655194144 0.0169487209663 -1.17592325499 0.481237324534 0.313315147425 0.0292985459651 -0.0807634881915 -2.22531980386 -0.253850080687 0.482136986435 0.0897515937898 -0.074607877264 0.619521191367 0.685626394652 -0.209891932761 0.205084924093 -2.0390749664 1.79002556455 1.05925682889 -1.45010287184 -2.84042982355 1.61477074829 -0.493377683952 0.962889025306 -1.20408440523 0.0153727574274 -0.843894850918 0.975676219944 1.52581940683 -0.193197582675 1.33087890827 -0.363749965093 -0.630317941599 -0.114078873763 1.59233364043 0.815656933709 0.294616937446 -0.280958699116 4.08742227699 1.21543427389 0.703264784842 1.32690378725 0.395707525689 0.909739812017 0.577827840815 -2.18067990958 0.91984133936 -0.869942836788 -1.61759321576 -0.230697596605 -1.65177942101 0.779539484537 0.918732880455 0.948934896479 0.443493826944 1.92131199488 -0.143076591907 0.210910135843 -0.644340866455 -2.24641627169 -0.678312948266 -0.192881614661 0.905275794547 1.59608495259 -0.769070601861 0.992326247208 -1.92696579416 0.758554164625 0.257594929314 0.538276201979 -0.647873621049 0.399441211445 1.38274280358 0.569238670398 -0.312572726421 0.77395488658 -0.326289636501 0.152794300467 1.67197595042 -0.881603442923 -1.30630376781 1.20587265466 -1.28274429808 -0.0815396800576 0.277585507733 -1.85160394234 0.93080646034 -1.01778092054 -0.979034935953 0.643783967924 -0.510125187699 0.198082699685 2.36201271948 1.17992146915 0.785309112044 0.915344314948 0.381271299924 -0.755802453642 1.00390929256 -0.43588385244 -0.250679428963 -0.50200024435 1.38879819758 0.12425816198 0.0875582080076 -0.366523312187 0.122432057159 -2.62259340272 0.677242510358 0.592326739661 0.651663616478 0.492337882204 -0.0170265669108 0.107168873643 0.0679763945853 1.54176231527 0.162179389732 0.0255113570483 0.66499256959 0.0214566480967 -0.224023562619 -0.24816377663 -0.353558090086 -0.720184087167 0.162898591884 -0.438332005994 1.23100936321 0.759454204704 -0.623407260613 0.169279695878 2.64753615329 0.953211827111 0.125640485444 0.704937245128 -0.606058016104 0.171167290737 -0.17394223112 0.247597834913 0.685827517757 -0.548498319634 -0.698809206108 -0.474977171663 -1.83778063998 -1.23064327601 -0.415445902863 -2.36774766759 0.178786635942 0.824100015491 0.102525153194 -1.41958293399 -0.702120998825 -0.0536770301331 -0.864901075496 -0.47122700093 -0.318307976912 0.90511339012 -1.19783342208 -0.511924398019 -0.535945784956 0.399328119104 -0.29212400649 0.15087151847 -0.910007828581 -0.14356202422 -0.404537571916 -0.58293741386 -0.598508679501 -1.56926582822 -1.87289518282 -0.0960902924184 -0.473281709327 -0.859783042489 -0.586615179696 -0.422261157222 0.140881538169 -0.862788581095 -0.400023517087 -0.86226156784 0.164892647678 0.819265958003 0.821515369496 -2.07395070789 -1.05548328828 2.13752208127 1.131323197 
1.27434782133 -0.4553934549 1.14343706609 2.65407918451 -1.18144348725 1.36273153151 -0.657200918664 -0.542753912381 1.33077733932 -2.03488770897 -1.14382013576 -1.13525562528 0.239453757363 -0.142951241062 -2.96103352273 0.182628222725 0.131931976275 0.0644540785325 -1.3727357146 -0.348460691809 -1.32777498161 -0.312792964711 -1.36912107864 0.502129026351 -0.233812295459 -0.0317883525127 -0.616736677367 -1.84805183367 0.446774580643 1.57463841898 -0.795978832811 -0.152375437667 0.838078636614 -0.593098629826 0.479760447487 -0.140815149825 -0.123551354519 0.0919798273849 -0.920379194522 2.06354046064 -1.1799444974 0.735174994505 -0.0832120049046 1.0340234689 -0.39514539776 -0.953459733709 -0.497203175046 -1.73685937348 -0.289228476429 -0.540299324977 -0.833277304074 -1.31603008369 0.00250618790158 -0.1045492663 -0.433821136812 0.545681583041 0.0678963983913 -1.54722097435 1.33122000412 -1.06918088272 -1.14062500569 1.18824751231 0.339474404405 -0.774519202936 -0.739159805442 -0.00197120763961 -0.982640694106 -0.0110243590202 1.50698467427 1.41468864032 0.515790155151 -0.0562052687166 -1.28310182424 0.859389449102 -1.55617239225 1.80911812604 -0.859376509055 0.699370230789 0.256226510686 0.94727826361 -1.02579165148 1.52055505157 0.794529279397 -1.32687342077 -1.41930516032 -0.576559065273 0.315565718727 -0.0516563061405 -1.38330687638 0.131736768221 -0.502773565529 1.47256392457 -0.401365269227 -0.502866532622 -0.325343758817 0.212777302302 -1.00457891856 -1.12508265339 -0.491357387967 -0.325820705825 0.916019384026 0.263313863284 1.96087016636 -0.393762869659 -2.85513949285 -0.605510122714 -0.343182495018 0.401598420444 0.19790539865 -0.360218300992 1.46322127404 -0.58158640574 -2.23213412094 -1.83473286687 0.46384216863 0.63390891409 -0.538154570102 -0.208733383027 -0.34132264085 -0.265285179558 0.920732670966 0.823276654058 0.0281757166569 0.948653726931 -1.71863154915 1.17081964476 0.91417185439 0.37308662171 -0.206969438576 1.30000347049 -0.76875756442 -0.503695842234 1.87145647529 2.05610042964 2.41774928206 -0.809251264047 0.580766199475 -0.546967964793 0.398869685303 -0.919120407103 0.0834446423807 1.08240018428 0.0407757766272 0.177552001046 -0.832834810452 -0.0196581412936 1.11172598309 1.00324485989 -0.885070107398 -0.256385353876 -1.01623518875 -0.0398102325292 -0.538970785504 -2.32133729879 1.1667531659 -0.539331644982 -0.216202066742 -0.299622015542 1.27962020212 1.0393760059 -1.46699252093 0.227390790559 -0.144436610048 0.61328057998 -0.66377701039 -0.229579137163 0.0612985684394 -1.34001792005 -0.380575705044 -1.13167291878 2.53026036004 -0.803475302211 0.704760207769 0.0530185786643 0.591897900514 0.157346637524 0.191635491552 1.51523885678 0.239943144426 0.893974831475 -1.18716700834 -0.355491738028 0.196662751011 0.848305083577 0.694139866041 -0.974304540699 0.904492420457 1.28229530722 -0.545032091561 -1.46791439845 0.157243664956 0.333893770075 1.30204909471 -0.951950446338 1.01531714646 -0.198784862472 0.817899518908 -0.868160157783 0.11517931966 0.439574470018 1.17879257257 -1.53336783077 0.156053653804 0.648909827562 -1.5817777722 0.725517145054 -0.899140651788 -0.8375320604 -0.187019666817 -0.829974972026 -0.581745392121 1.30996159688 -0.191330518647 -0.241761783359 -0.307831202032 0.514793613526 0.326082886826 -1.15938396936 -0.442549128431 -0.565000534825 0.579002247467 2.44872069047 -0.682842233808 -0.149505237066 2.10726500737 -0.263297759144 -0.315487626782 0.363416940352 0.100447599074 1.88685752045 1.15617389956 -2.28440321072 0.682712472262 1.21477493741 0.322829576787 -0.487996050372 -0.330091349515 -0.808149349326 0.22011183869 -0.830819620243 -0.253220224318 2.24312083317 0.54758510633 -0.0970418584546 2.27342239531 -0.0211232791533 1.02624327368 -0.825053705824 -0.916914375605 0.413239720761 -0.884544212005 0.0562966147776 -0.949151723169 -0.19615600616 -0.965292082726 -1.12285226396 0.41782925995 -0.987723973454 0.104269086433 -0.784525483502 -0.215021451822 0.355780263583 1.14396254349 0.840113319859 -1.11531632075 -0.580354658323 0.805750041388 0.421212668958 -0.0250202675348 -1.44678094397 -0.266916874025 -0.328806378572 -1.73160292455 0.250077533375 0.415112214812 0.931572308442 0.554858521146 -0.0904084586928 -0.0422162231172 -0.369278507256 0.528188463251 -0.255587167153 -0.401499819276 1.12361000019 0.0720641324467 0.590488090756 -0.0987800690184 0.65584479689 0.547439726047 -1.30838730581 -0.362692315879 0.141424875103 0.869511025504 -0.324171459749 1.64214697426 -1.03298335969 -1.38432445841 -1.25082826012 -1.73968741375 0.264745256153 0.042533798643 0.423548904174 -0.62411206037 1.95319321135 0.45637765238 1.0123506257 2.63206877475 -0.480113485599 0.547925000936 -1.2615186454 -1.82996064155 1.14050439177 -1.300262845 1.83100231887 -0.807395669456 1.13828457627 0.675117853169 -0.500154239684 -1.99225271416 -0.513055109936 -0.599409311851 -1.17588484238 -0.252574286158 -1.20642801432 0.0545745107874 -0.286878174453 1.58544927778 -0.382810190529 0.526291690125 -2.10732649161 -0.529317177263 1.02672421394 0.193395855032 -0.231598078239 0.188911611276 -0.249460880178 1.07427521165 -1.01028150371 0.417104278123 0.055689736211 -0.488489803121 -0.75277356906 0.707652932505 -1.43364637039 -0.305205973771 -0.64451102587 -0.102450693903 -1.18546625447 0.264316945862 -0.06138134353 -1.08213677197 -0.411130210981 -0.614240859846 -0.883400475865 -1.02864870965 0.412242571437 -0.812325162802 2.07391925388 0.609964462183 0.667431071366 0.305126298586 -0.412691435433 0.175947540123 -1.4246084737 -2.64184590402 -0.804945555678 -0.567456282576 -0.324891155152 0.896444675273 0.372482150945 -0.016909958958 0.154398114114 -0.62060683225 0.483219478321 -0.907321415973 -0.156844803495 -0.769239505392 0.413246536895 -0.133169439136 0.420009253408 0.107466521583 -0.627278449035 1.40841331953 1.72917478906 -1.14419354178 -1.54596080802 0.428345881586 0.11947684026 -1.03955270923 0.393942449496 0.107199671214 0.678115863034 -0.582117008249 -0.572843859961 0.390307312304 -1.16936804771 -1.53894407773 -1.49390154368 -2.19229769409 -0.632366604278 0.215979840321 0.950807907736 -0.603480564253 1.2959133477 1.43626913936 -0.065330035357 1.20836918157 0.906259458901 -0.676817016268 0.651369300063 0.761665674433 1.11181138802 1.51608474133 -0.230331306086 -1.33146068081 -0.623903075361 1.07846855799 -1.10621512352 0.744241498251 0.197121504048 -2.21903559046 1.1017347137 -0.395071768419 1.21168223794 -0.354578498618 -0.88371933982 -0.727278640422 1.30913117078 0.118798685741 -1.56951013576 -0.163465629322 0.593128878415 1.03101551655 -0.20590508768 -1.01890558924 -0.515628864326 0.0703951670135 0.332122924905 0.212762083719 -0.545692522972 0.0969782425588 -2.2308837556 -1.88749363359 -0.0223533362942 -0.538395188299 0.0213011463367 1.0914147251 1.59650515445 -0.154494270754 0.0721952929587 2.15341087311 -0.982147018678 -0.229185999946 -1.26996225177 -0.527459134486 0.389702718076 -1.99583994502 0.0620110489435 0.464483715909 -0.0150842986215 0.147600528466 0.439804904034 0.0665455330663 -0.962028272085 -0.115758255715 -1.30995771961 -1.04508607672 0.762300093402 0.139885871176 0.117955702837 -0.879838806966 1.01289812087 0.202485831808 0.989277995092 0.871610805891 0.868159696306 0.787996432188 0.276158018353 -0.864002302693 0.9645762122 0.927085606337 -1.32550967373 0.754424923282 -0.854379656457 -0.237808324246 1.03711584189 0.234913563624 -1.43640706991 -0.679066783915 -0.824431840416 1.5667533178 0.299229353952 -0.498134222943 -1.11555050934 -1.92107057263 0.651816446272 -0.799250161556 -0.282051647189 0.561311222239 -0.624231058159 -0.695652975598 -1.3627584122 -1.17109016239 -1.43373979699 0.550534426352 -0.293824273272 0.166142819639 -0.224236613992 -0.223737612623 -1.72197123124 1.21939377039 1.95138499343 2.00731772336 0.286706658591 2.73519639545 0.790763897652 -0.108917697244 0.379573028416 0.457432467651 -0.0514813450262 0.333714990243 -1.1869736411 0.00278728732478 0.8201892743 -0.0576398623537 -1.39285469053 0.364165265711 1.18962130586 -1.5321194017 -0.559640053841 0.180860115343 0.91358626478 0.971580671442 0.90276405502 -0.301476423726 0.185180679883 -2.2655845322 1.46889537581 0.436455874818 -1.33924608216 -0.347133911943 -0.307416587959 0.491943814228 -0.773547230572 0.924228167673 -0.268326538267 0.629942866775 0.452513039676 0.747141845978 1.3384228635 -0.159900054892 2.07926291845 0.963593812989 0.381523538198 -0.594209208759 -0.789150334216 0.231709371119 -0.573865977286 0.876375715587 -0.31967429914 -1.2350548581 1.14834652981 -2.00100549527 -0.197465813433 -0.295320028875 0.245193256297 0.239729801137 -0.349067733914 -0.251230563567 0.432482292775 0.803352821911 1.62514744639 1.10252612426 -0.685992590124 -1.55110849472 -0.489447733996 1.28513667216 -0.140125812236 -1.16078131141 0.833628368247 -0.224015325674 -0.705454897807 -1.06140920433 1.49777461124 -0.430178170052 -1.18372451727 -0.728308531073 -1.25001812828 0.0158037501484 -0.81030626591 1.76814400372 0.740707562206 1.0160030536 -0.772633688966 -0.152085946562 -0.789034502003 0.138392456289 -0.85193863285 0.106440580217 3.05514602625 0.226351224018 0.929180599307 -0.394124009718 -0.947791474977 -2.36992000713 1.3263673519 -1.84471605181 0.135729341775 0.00184936355517 0.71996627999 0.279431739283 -0.0103943065066 0.686352446443 -0.0913894755473 0.281171323099 -2.33802056124 -0.122021482061 1.06275420578 0.93640970182 -0.815789089916 -0.294303395033 -1.22140654525 -0.513422761882 1.85669468502 0.419902175005 -1.98217297369 -0.0755596541105 1.15982829519 -0.867365256528 -1.35058491396 1.53579472881 -0.756487734915 -0.0665290931964 -0.845642998879 -0.75983418392 1.38485924049 0.342330945096 -0.235688121013 0.050829420889 -0.627270206689 -0.55422612574 -0.585670651022 -1.13326826847 -0.0113902999024 -0.264669390619 -1.27943939003 -0.364864747552 0.230850336406 0.529037897429 -0.505261228654 0.769663118166 0.933623890114 -1.57570959697 -1.61030921245 0.330943271363 -2.45784001252 0.829385492856 1.24810674008 0.0605743207243 1.72670418598 -0.315992213501 -1.72994896367 -2.42672455722 -0.70748274043 0.219270242744 0.48530550046 -0.122701818021 0.319963409364 -0.68174295536 -0.792571187755 -0.747318486629 0.85519329278 -1.85748052942 0.179603644517 -0.638248690391 -1.92088895971 1.53804726176 -0.762322114335 0.0558513221513 -0.722220844556 0.258996322643 0.297253621602 0.402662552639 0.367558551594 1.20833639645 2.21121441394 0.750248710828 0.20438550791 -0.429011009409 0.348822398282 -0.987704532862 -1.35505573274 -1.26873018619 1.36985279901 -0.780616952466 0.474166121156 -1.30415012715 -0.296755746151 0.0122730309085 -0.827940200974 -1.70025058474 0.200921004528 1.07713287563 3.63338690732 -0.435534731235 -0.702826769216 -0.406111621077 0.201278337735 2.89243347205 -0.790849495867 0.418237892808 -0.469171961355 1.41260788892 -0.815328014318 0.402875816506 1.56998910125 2.12356532881 0.539004770218 -2.32212096741 0.412761468149 -1.07410787105 1.74316831787 0.327033889529 -1.0294967458 0.153558304976 1.17389545103 0.425397607023 -0.272037548138 0.88464844188 -1.13013390126 -0.476148421184 0.685619394608 0.0414575550351 -0.0402515515701 1.04691407474 1.9065799082 -0.216308482813 0.827431833834 0.379770178105 -0.957107920517 2.0968365937 -0.266113837385 -2.56206672975 -0.162108168159 -1.80362833995 -0.27683150648 1.03220637308 -0.8310559402 -1.31876737695 0.0929084892429 -0.572081327291 -0.118349113885 -1.71560936856 1.2265588613 -0.288838160193 0.304086847949 -0.668398525455 0.954576719655 1.10865946536 -0.535074374437 1.05537169124 -1.04344986903 -2.05190078347 -0.817768821441 -0.00381810563131 2.1996131984 -0.654148386527 -3.32845370217 -0.961720827302 0.101284688721 1.25048212319 0.667270523165 -1.99770160254 0.225641229416 -0.543638691668 -0.843897794526 -0.426875750142 0.776820142802 -0.457580764273 -0.817132599799 -1.17837692882 -0.050872147208 0.483280476638 -0.41419276583 1.81420307561 -1.13534269044 0.469517057325 
1.24800250145 -1.74001697714 0.233053211588 0.841845615454 2.72695454219 -0.90281360805 -0.284993781675 0.35144560701 0.659458638624 -0.17536325995 -1.84245632814 0.0251269184891 -0.57904855088 0.120034532296 -0.44735804079 -1.35967242556 1.57434888972 -0.791404114518 0.215157471455 -0.243511516036 -0.502042411467 0.0371134790201 1.58652738043 -1.04374254141 -0.580430924443 0.767869065824 -0.332252610745 0.31678278514 -0.900308979474 1.55843280485 1.06184925637 -0.343207577744 -0.146998689922 -0.202675253656 0.865921379684 1.13774424063 0.326978652626 1.73668683882 -0.85132089384 -0.356732441228 0.0796631773888 0.636254370037 -1.89966910383 0.0209622042609 0.116031665305 0.355759567815 -0.879928614201 0.0215372937981 -0.170264258375 -1.16600190022 0.967661614582 0.692155061721 2.14501732541 -1.67359756364 -1.45183428785 -0.468724101109 0.596794066344 -0.705852222838 -1.34989429235 0.215271714606 1.00850906896 -0.400111090896 -0.337781031257 0.985987205153 -0.110868848887 -0.84438769215 -0.424114276015 -0.307741643166 -0.288227014486 -0.819262813372 1.16163329611 2.25526466309 -0.636523178988 -1.33351168486 -0.312660162289 -1.36240750943 -1.27843504108 0.0648538356985 -1.82041711897 -1.16685117274 -0.787979547402 0.0310992755039 -0.95475729217 0.262719212897 0.543633363599 -0.630872263409 1.62714649485 -1.55741766527 -0.155660109628 0.962656689646 0.0486879503849 0.474753271126 0.718404374942 -1.00742638898 1.82575980763 0.731384540145 0.48727321031 -1.15204400921 -0.822495292173 1.43274236915 -0.665660302352 1.52335312043 0.807821680491 -1.33510142179 -0.83204068212 -0.0719416684739 -1.00382387815 0.687859595524 -0.361522594358 0.105379673745 2.34390598829 0.197482147589 -1.51559999741 1.44946148212 -0.676841799037 1.2920509811 0.804405465556 2.16257161326 -1.11664853247 -1.3610195977 -0.470686120991 1.73776611749 1.24297786016 -1.03198573118 -1.6897968276 -0.701713945435 -0.984925266872 0.106378329396 0.531456010373 -0.484107940892 -1.02821415479 -1.42418837837 0.39544196333 -0.25618016426 -1.04047383132 -0.162795049942 -2.823352252 2.67397991142 -0.885647374367 -1.2329578714 -0.637198128596 -1.04868349187 0.551776695152 0.134573690278 -0.72473218101 -0.223349179199 -1.35878907714 0.131158025342 1.0218070774 -0.74996245031 -1.06105999364 0.4675592992 -0.120057235673 0.0929965100618 -0.498868369516 -1.94702338846 -0.10541782623 0.873808918776 -1.18807411963 -1.06018919405 -0.525992713117 -0.0913741495987 0.392688445969 0.762179473327 -0.00839241198082 -0.611173526182 -0.599033350874 0.230927343682 -0.500708159967 1.33306818136 0.808904211204 -0.542800728037 0.526125737421 -0.346821985162 1.6278249758 0.178265192218 0.104374385759 0.356965842886 -0.305244486242 -2.7670523899 -0.725546252776 -0.49503782045 -0.660957686508 0.696720917927 -0.109103753055 0.16746769931 1.6947994297 -0.0724105672309 -1.4015201728 1.2151750633 0.206478094784 0.011843142972 0.15519551621 1.23785590798 -0.667767854901 0.524831043348 -0.807235623905 -0.553588994048 0.196029941006 -0.642082748312 0.132240904014 -0.294234525191 -0.487814721801 -0.33850039259 0.266350694828 0.466476795038 -0.788973892105 -0.996705433451 -0.676566833473 -0.177273666849 -0.394426904486 0.576928936012 0.277741850009 -0.407272876567 0.276374853272 -2.10077637667 -0.285528098142 -0.618891972741 0.381194391371 1.46972544807 -0.312459584492 -0.0849802589268 -0.594990203813 -0.302491911439 -0.112424888743 -0.712174715429 -0.498217661342 -0.410967556933 0.697038330455 -0.324211760655 -0.357245933549 0.716466394118 1.22602312096 -1.74793426484 -0.235250354647 -1.17990358611 -0.662471357933 -0.461584106729 -0.212879022774 1.15024284229 -0.387143429562 -0.178910313545 0.191314715331 1.02844797204 -1.13373571872 -0.316017717135 1.31322686562 0.405445832408 0.249813128946 0.924276552514 -0.998016647375 1.98289204146 -0.468098330826 1.12164841615 0.053754848312 -1.21373300117 -1.71818648026 0.629935609311 -1.01079341261 0.370515328947 0.0496626628169 -0.697122888221 -1.22140295751 -0.423667281104 0.842830542692 0.701899919487 -0.215425544578 0.628104186363 1.17607191081 2.02795082899 0.19509008752 1.36505454577 1.49553378428 0.10558018866 -1.17733238344 0.186757186015 -0.257544401276 -2.13781008508 0.736311792446 -1.42960563603 1.54641803961 0.300309215514 1.03108411378 1.01235813757 -1.51575588925 -0.096183471176 0.76493121592 -2.67224861682 -0.337741773832 0.939820651041 0.943413730868 -0.727383721729 -0.210772806923 -1.25525179877 -0.308897219286 0.0709806821391 -0.483634264533 -0.178104901187 -0.791792068419 0.741268578262 0.0662535708537 -0.627040948015 0.225208492475 0.305921075318 0.993397775074 -0.714969354117 -0.10319687352 -0.347875198747 -0.551732417298 0.572484826205 -0.627738548926 1.33984539531 -0.857586942139 -2.16307707329 0.395654140488 -0.698755099437 -0.0266318159777 -0.377815695177 0.974241385356 0.0767701294374 -0.887331894116 -0.254410773832 0.367850505235 1.9760700622 -0.597814941211 -1.19584792562 -0.290774655059 0.36431780736 0.713852396506 -0.28463882895 0.227290361493 0.500268423254 -0.617420046916 0.244872805231 -0.56579293158 0.575037128645 -0.512804637425 0.375677315809 -1.53933176022 -1.3997616104 0.403917420228 0.211332243522 -0.738579280135 0.388638928569 0.0294550780603 -1.36492902288 -0.975567731049 0.530455833847 0.0188736195071 -0.641955807199 -0.811389296435 0.970967739897 1.91655928593 -0.240906246248 -1.07878062322 -1.26488528383 0.818919233237 -1.52326880284 -1.89925612492 -1.56251361689 0.528807475008 1.36559757145 0.726679355978 0.900348257509 0.873301492702 0.226645589772 -0.315230257495 -0.201067587793 1.49359099565 -0.304841405824 0.699543763194 -0.0984779035784 -1.59257212135 1.01585299333 0.711665866546 0.736684370252 0.0908317272148 -0.817820252963 -1.09999076939 1.12926572581 1.01280638137 -1.17672236453 0.354016975116 -0.0121761537862 0.85147447941 0.696338014538 -0.556781298276 3.01430461682 -0.763360130525 0.472027366734 1.23574295824 -1.58550130232 -1.60162881628 0.86326209401 -0.350682271699 1.51290684708 -1.55756206605 0.0328166274457 -1.37902502798 -0.336489935963 0.485144596562 -0.723721398724 0.245710528068 -1.52007191469 -0.314923773147 0.376554563953 -0.566538208559 0.517251572842 -1.01715491557 -0.521213083631 -0.551194293632 -1.83586042226 -0.936557195989 -1.39984131836 -0.28234157339 -0.502520507497 2.53489858771 0.122461981264 -1.16755451447 -0.636642725764 1.48613168009 -0.315609976585 1.47884751437 0.140968717522 -1.12926892802 -0.922848229454 0.484532181751 -0.0926777561979 1.47022016472 -0.261393433911 -0.800192569907 -2.68985998871 -0.838708579728 -0.842795775388 -1.67587868745 -0.0136942681406 -0.55101695575 -0.205280480683 -0.478842856505 -1.69563034761 0.203055598271 0.106491168712 -0.444686088566 2.43718173449 -0.307888912016 -0.289408023676 -0.935205994747 -0.669181110552 1.58251026959 -1.97698299518 1.17642461637 0.349935006473 0.562681333197 -1.08195531447 0.0764093648351 -0.491853458923 0.984408955851 -1.85022617261 -1.12028933362 -1.19937804123 -0.711197554487 1.01081043571 -0.470835433448 1.04107469747 -1.14894833414 -1.83198109616 0.574743589523 -0.452378660071 0.448997043039 -0.084286471547 -0.368081984768 -0.723719636274 -1.55216269889 -0.901358844968 -1.35759568943 -1.15119429692 -0.985005666235 2.18922428605 0.454142607036 -0.774496513735 1.26811335886 1.05984082682 0.261941990808 -0.411517732393 0.396845537139 0.296174518477 0.688677136528 0.0613178065164 -1.494565408 -1.41165238881 1.2417070923 -1.03429016111 -0.888376510686 0.649253520247 -0.0969433517321 0.316782388093 -2.41289723056 -1.01076236112 1.86183434902 -0.575894432946 1.09786844315 -0.910693078106 -0.631291508419 2.67833633897 0.804887467862 -0.111540870152 -1.76326620623 -0.488796771734 -1.37755935321 0.616100000126 -1.19315776442 -0.274278762596 0.374767328398 1.59193667142 -0.374153190862 -0.158717555649 -0.110157993888 -0.751205566295 -1.05744590077 -0.395568772768 -1.91625988994 -1.36111178612 0.353027132778 -0.731717910194 0.492698689462 -0.969376076308 -1.70645965813 -1.59165566796 0.84744180305 -0.0970160286673 -0.976463681711 -1.14891068363 2.06361668177 0.204826773723 -0.599810197868 0.339111970453 -0.425427049877 0.100257643487 0.49937664697 0.64289119743 -1.44344472238 0.416626868399 -0.0935795637998 -1.08079100612 0.888874513224 -1.38007092842 0.644997071346 0.758130855068 -0.979564877836 0.546752267905 -1.36729467235 0.438234621014 0.291126363133 -1.30047522436 -0.0120426050669 1.17503863372 -0.370319918073 0.708753665878 0.401979332387 1.30800081764 1.68627793473 0.108633922069 0.332601927185 -0.57704441184 -1.79442540301 0.21569995074 -0.136258281725 -0.189348689185 0.292458116563 -0.712866022874 0.759705671239 -1.27557391066 1.43728718648 0.984102510841 1.91831276742 0.103053476029 0.0268267533507 -1.11280033693 1.979591206 0.410979906682 1.31673279753 0.738393592933 -1.26215116134 0.414806487771 0.275030292608 0.63389419058 -0.0655219440719 1.16902121082 -0.406125345075 1.33938915381 -0.682912002485 -0.288695270941 -1.51145758299 0.0322836585466 1.24053729242 0.437570257585 0.433098788704 -0.350995434184 0.192740945736 0.728192630131 -1.13373585971 -0.324896722056 -1.16224703963 0.284920792982 0.258044467827 0.0320969374404 0.603273768685 -1.40837540458 -0.954722571728 0.952829933582 0.101672532607 -0.225858316641 0.312221099417 -1.69982406557 0.216076791211 -1.51014819911 -0.598744163364 -0.145391444645 1.08750639783 -0.306466520459 0.0771893979836 -1.07743862561 0.089171075313 0.105061806957 -1.81262005336 1.8274123349 -0.401498974211 -0.126173634624 -1.25657856247 -1.25621012504 -0.953836705571 0.120307102723 0.349528518919 -0.0978653260769 -0.8180945195 0.189144510322 -1.17035332143 0.90917604672 0.537643157642 -0.493559200633 0.251883828014 0.601074763378 -0.00426758108293 0.66376994653 -0.836007599965 -0.593055780446 1.13852673652 2.24155742547 0.196124931438 1.26136151977 0.0781968300484 -0.503840829581 0.557969346281 -0.263386952523 -0.226720870395 -1.40238990669 0.232212463716 -0.661191712933 0.865555570311 -0.815686571705 -0.919018937187 -0.78855743756 -0.166736238081 0.10320671652 -0.112094321215 0.351214108389 1.17640266996 0.937512851693 -0.994986592694 0.470059621598 -0.930429453012 0.0532624563817 0.0414243062569 2.09897762187 0.0477532609966 0.795465058163 0.0250955908049 -1.67307459324 1.08786487194 -1.09831279404 0.0112003661161 -1.23563057574 0.414971366093 0.0876280930656 -1.12794202738 -0.128624764919 0.734267167639 0.559239788154 -0.186653690995 0.184871379102 2.11498098773 -1.24363707511 -1.81599523273 -0.0379091273951 -0.0482706206465 -0.379755626914 -1.23006319472 0.600779717645 -0.861517632829 -0.313366162944 0.202443536108 0.577322783177 -0.55231093598 -0.0944615720973 -0.9254758527 -0.225663454634 -0.807964029139 -0.0879951663421 -0.877941774172 0.291482572299 0.389125266624 -0.508925056597 -1.07269899138 1.18552447917 -1.09238246366 -0.526041765356 -0.744471555306 0.459829313731 0.359397936842 0.0982189559721 -1.10805175327 0.45004565658 -0.00727156506841 0.270741626691 -1.15726218266 0.139662437728 0.338918049606 0.01004482157 0.883190465792 0.394914898369 1.14795812588 -0.591272952378 -1.02141160248 -0.516176357537 -0.270743536139 -2.35158519628 -0.247160038012 -0.760099664676 0.613731176916 -1.03419927723 -0.782680722106 -0.608082659908 -1.67905146726 1.80612596771 -0.203868519057 0.405834989672 0.00120808304438 0.983222754016 -0.224260290565 -0.203565975618 -1.43872820006 -2.59430890473 -1.02945195886 0.17170024349 -1.12061815531 -1.19930294765 0.183090604822 0.459916768978 0.631548972936 -1.50470288211 0.37124873164 -0.0519271402039 0.312052799343 -0.888863945285 0.773611285751 0.332312583059 0.105821382871 2.01782099575 1.77328174987 -1.94799889036 -0.286647480646 -0.27258267324 -0.339249339674 0.381525469918 1.52901392446 1.42670499965 -1.15500431116 2.22959093644 -0.466406522208 0.392244872542 -0.097721305146 -1.34436616621 -0.017206799403 0.258984734075 -0.493536102391 -0.154831910876 1.54940680844 
0.096052591871 -0.210887565994 0.113176071932 -0.333289626019 -0.694833889829 -1.40505642381 0.353811856766 0.044901526016 -0.36775298653 -1.9695777516 0.780144360144 -0.787652358929 -1.65067462931 -2.08136172378 0.972051330768 0.609603705588 -0.106324358693 0.748321724139 0.486818644458 0.304823451769 -0.249488972761 -1.66516427537 -1.55703398174 -0.432380036406 -2.12005484935 -0.154094408239 -0.384583457684 -0.471632501592 0.246115135785 -1.45534633126 0.0832522604199 0.778755396522 0.243614538044 -0.650633661882 -0.98778452589 -1.37774724359 -0.781909484985 -0.565949969025 -0.592739476844 1.05903512247 0.379013091619 0.200204462483 0.90320977684 -1.38511681705 0.706557788269 -1.18202954954 -0.353606966673 -0.718051827271 -0.257877525624 -0.546390997566 0.662100936361 0.0273154469129 -0.855668007056 0.353594945116 0.147785538468 0.917378744209 1.10842535849 1.35239819176 0.099479289444 0.456347792119 0.698822557616 -1.01196947509 -0.707202991121 -0.430196530127 -0.723228353646 0.718702160779 0.348731349501 -0.890121443786 1.13875208325 1.03742450756 -0.450743462443 -0.526585531978 -0.154835253682 1.72126259458 -1.45924303255 -0.107421782322 1.30053103573 -0.0755681031454 -0.727955382919 0.262180706588 0.387820584727 -0.581080191954 -0.555464339849 -1.0904988636 -0.254191800849 0.733153405724 -0.491260857363 1.66237002709 -1.45850548652 0.681748058968 -0.285597051874 -0.794146692919 -0.88754641423 -0.722935326851 -0.895540217268 0.153415380702 1.17335620431 -0.861488088099 0.493134001997 0.562358447818 0.200566044034 -1.64121139334 -0.325709371805 0.209610881389 1.27992910239 -0.489071618749 -1.28035142879 -0.514185676191 1.73469047472 -0.493513466172 -0.807123660816 0.967889174374 0.896821655034 0.861223671511 0.314548544401 -0.322670254925 0.477744406116 -0.10630084525 2.58996947529 -0.582791166965 0.130068738187 -2.31727187291 -0.503058705129 0.814200477237 -0.548184806906 0.46852423298 0.116248914418 -0.891445171656 0.866510409104 -0.14094302244 -0.83420896193 -0.260287878231 -0.0302518740134 1.59410791784 0.841818796085 1.5971307894 -1.01911687502 -1.21689013801 -1.01688662901 0.933360378487 1.18831707171 0.31782427843 0.695679705169 -0.0863768353745 1.23237821744 1.08357165265 -2.15268001529 1.41711790905 0.438690331949 2.13280021658 -0.277727579504 -0.697283561922 -0.281416451346 -0.204500046451 0.519697140864 -0.189717603074 1.83179091668 -0.491442201063 0.294066192459 0.926239348585 -0.208901111569 2.00717232683 -0.169121575548 -0.698978620253 -0.145797056785 1.57798229034 0.807859976526 0.503327783554 -0.269151083263 0.394898329948 0.247847187567 0.219277102305 0.362161311543 -0.73967787905 -0.266375077447 -2.55835198723 -0.88305407572 -0.91650070245 -1.61390027307 0.664211224292 -0.304848679894 -1.10889205267 -0.866295049803 1.15329740949 -0.171078977217 -0.52420249118 0.378753436829 0.979781572445 0.658870974124 -0.247656672374 -0.50136966643 1.46235663192 -0.41994499931 0.0541308864009 1.67198731961 -0.76100297998 -1.29443355677 -1.37249335439 -0.105723204023 -0.97956600692 -0.131818110584 0.842318122343 0.845958192661 -0.0965614329077 -0.213160233623 1.12581823168 -0.428972996726 0.103678474055 -0.805917358936 0.554261657237 1.75269409332 -1.47061367574 0.461014539944 -0.526448197468 0.615708401076 -1.77422875452 -0.987002332523 -0.840581160154 -1.74491405572 0.241024171799 2.49522569389 0.418745451623 0.083871139991 1.44712370643 0.262582706195 0.470069316565 0.821157445845 0.0274703739387 -0.716320013828 -0.76135275604 0.52235738624 -0.106509963792 -0.752493971106 0.502078817992 -0.885578900718 -0.792197659382 0.652702110738 -0.787985696867 -1.38256686916 -0.690894816213 -0.00165255306936 -1.50823262833 -1.8005808993 0.775527368454 -0.265472872474 0.807927453628 -1.12552325093 0.561237308906 -0.7558357938 -0.246962505445 -0.581975901842 0.448237211964 0.0292536591718 -3.08407024662 -1.21776658155 0.584196342524 -1.13759700316 1.09427180095 0.621737855634 -0.537928067437 -1.22903819165 1.3113640537 0.372104472855 1.22926679701 -1.15496510184 -0.57897518104 2.08954671746 -0.330398131607 -0.301236578847 -0.170557785852 0.904349575557 -0.626895056359 -0.865369047872 -0.412134787774 -0.748416209682 -0.081589900702 0.21153679001 -1.34725254099 0.65934156471 1.25259462288 1.06549286844 -0.584359501908 -0.117484567838 0.0653224557805 0.23039903189 -0.902691740737 -0.234110212011 0.215461784059 -0.786944199027 -0.835921117878 0.126190462179 0.675020625051 -0.168483407602 -0.648423636917 0.985875808782 -2.09547526954 0.528494525532 1.28703162791 1.97551206678 1.2494382191 -1.02909249425 -0.0663368153839 1.09812905878 -0.858933984557 1.46361758586 -0.0136135871463 0.105795411985 -0.138581884141 0.466305248849 0.342629456424 1.7869918578 0.244497295814 1.43868012559 0.0638682615188 -0.0500333249992 -0.344360313756 0.062222948036 0.794376826453 -0.169305601825 0.831943862987 -0.681912080495 -1.66413775188 -1.65713476498 -0.69034455143 -0.555897211093 -0.136911508182 0.250700222573 -1.6084189878 0.0866197930751 0.627298874919 0.875332316428 1.06902701669 -1.44672431835 -1.66079198568 -0.448335110353 -0.624132658745 -3.16432581261 1.2860680112 0.475150002586 0.444338399668 -0.361198292192 -1.13404446501 1.03743394847 -1.30618971316 0.528486121689 0.568500853994 -0.448594506812 1.12819637974 -0.736685277608 1.59023212454 0.552714080857 -0.00975696534878 -0.964466408802 2.06793495567 0.191092245546 -3.1632629033 -1.72402305066 -0.65784302368 1.11322511273 0.2681912979 -1.36137971415 1.25173660224 -1.43549291446 0.291378877892 -1.30134566555 0.494689200276 -0.241014857504 1.15917267793 -0.364877761914 -0.29285628172 -1.29962432369 -0.0833461341135 -1.34051767125 -1.15037940094 2.55834511241 -0.244396726885 2.12309754631 -1.21807476407 -1.34522030557 0.453215158202 -0.403233255419 -1.19540986359 -0.676566298427 -0.297234533815 -0.858998342351 -1.16014060086 1.29669590715 1.36827530183 -0.84559886741 -0.598129454712 1.00921405821 0.138376081134 -0.567253051103 0.364574170715 0.706672264845 0.416361989178 -0.316744211937 0.346654418032 0.642509966088 1.56654264101 -0.422036317736 0.138200576262 -1.40999774156 1.57246936297 0.530086377864 -0.332043443263 -1.48260942175 -0.982533682956 0.509984552451 0.160542304259 -0.210043810621 0.848612845233 -0.889597481587 -1.19220030792 0.520050216284 -0.197543970579 -1.36262324001 -0.748778848311 -1.35890140912 0.402601309273 0.8198362016 1.26805648551 -0.896289111327 0.722193583996 -0.85414520788 -0.39677051849 1.08738568974 0.774586398072 -1.91476362316 1.11677869243 -1.32438444831 1.95030578958 0.496788838399 1.22724037016 1.27376989407 0.204522978505 0.11400069181 -0.334234179468 0.854736040672 1.89638773374 -0.354006786399 -0.783625447968 0.0356089602549 -0.0722222952148 1.3529577111 0.0835268718365 0.0765579729458 -1.53882734088 0.550649928533 -0.549605742911 -2.10515148981 -0.0315938057643 0.473730040899 -0.0607594423987 -0.263963963668 -0.292485772203 2.26762460657 -1.17699949308 0.970908514582 1.03701258337 0.138833101402 -0.768001616958 -0.329864408842 -0.446333828929 -0.833042270397 1.50696846473 -1.71065829977 -0.762024785952 -1.77017593399 1.4285932306 -0.077951499728 -0.602743134621 1.89775315085 0.144018290677 -0.0996604862732 -0.110132895495 0.0130459468724 0.302840897147 -0.449902503641 0.882433303982 0.514870788711 0.185769239884 2.42067051707 1.05035286393 1.00902713828 1.10906332376 -0.0660442155726 -0.349358912068 0.58373684857 1.61249006328 1.34464831843 0.166352178729 -0.572512616076 -0.326704738718 0.0355686764285 -0.975604937758 2.17791943258 -0.830070968209 -0.0703096136847 -1.29363515583 -0.497700440877 0.507280629671 -0.0830655326747 0.161519305141 -0.0843164965067 0.0701591737541 0.285199084818 -0.254154356269 -1.48017447335 -0.533683584428 -0.626636910206 0.337369420554 -0.536209415461 -1.13178428205 0.0563716348108 0.863098465579 -0.993978930947 1.42123797801 1.07306812015 -1.44235251004 -0.0379496484321 0.678868447617 0.715188762417 -0.581087284117 0.162132304529 -0.224655536967 -0.980470419482 -1.76225413625 -1.23438386216 1.28063495384 -1.78079720423 0.860050328375 -0.593699473334 -0.717984289186 0.936236821028 0.33896559889 0.229837608662 0.397682894313 0.204090035904 -0.0489943843875 -0.627179574885 0.602736044797 -0.324550669396 0.548384528524 1.44739598767 -0.617327460331 -0.729272355255 -1.71320836501 0.750922082104 1.07847741378 -0.832496999806 -2.06246588072 0.821576118193 -0.858694988348 -0.390735260376 -1.8947912442 1.27341915256 -1.51613577231 -0.142297014301 -0.412558510715 2.5658937902 -0.60213808737 0.986709753334 1.13842555703 0.0812305725907 -0.967279363524 1.59975816711 -1.22037992039 -0.258466180196 -0.342062269707 -0.153009123787 -0.104771738569 0.658160494909 -1.05855473795 1.93034275084 -2.14647637069 0.677254792088 0.225055450707 0.891712944062 1.0274863551 0.35800426484 1.02568628034 0.782659364973 0.81292883866 -0.883459853316 1.02646753728 -1.41879861199 -0.562527775612 -0.484143872868 -0.447483758158 0.887980689071 1.438377116 -0.271387974612 -0.964921815121 1.62060479238 -1.01238411515 0.325391791044 2.25323147104 -0.918893411949 -1.19010768122 -1.05705473692 -0.505617850353 -0.314128258501 1.38254112921 0.799602018576 -0.75181516748 -0.878692760713 0.850341683502 -0.865091896744 -0.14990026487 -1.31507965737 0.643038242084 -0.259857458259 -0.925877421241 -1.20618085854 1.03261744122 0.223891046632 0.591216678397 1.07563047874 0.276357422954 0.55538678256 0.966832139912 0.7765962159 -0.48356611082 0.977578261681 -0.888647257505 1.0596122103 0.897535357659 -1.23151483396 0.212798399078 -0.37703047252 -1.69052193312 -0.213492432879 -1.04126220168 0.00897821026385 1.06837112738 -0.0503628709511 -0.0660595442402 0.287240636189 -0.0909511274548 0.521979388063 2.73201484023 0.910239911323 0.00439204545436 -0.816853527506 1.10392566048 1.09896537465 -0.614621558642 -1.38728400434 0.691132452803 0.872144284148 0.585073228928 0.00569436770484 -0.773991148962 0.240035614945 -0.200389906646 -0.457532215723 -0.484930699786 0.579132503873 -1.09041228885 -0.306191996534 0.343672297072 0.128460405693 -0.449506758906 -1.43133507289 -1.01424711719 -0.63260622737 -1.23526924862 -0.099338992778 -0.0212787578173 0.300297729946 -1.48067848902 0.667243066673 1.91015547517 -1.68845454443 0.105389708234 -1.84018637554 -1.44058287289 -0.998895273276 1.55349938181 -0.529292433017 0.984380993789 0.103440022089 -1.25026455391 -0.312519650519 -0.628374663295 -1.72894596463 0.422090555085 -1.91194184614 0.30674059198 0.175305397618 -1.44815738306 -2.61231571011 -1.72594337906 -0.341804490024 0.846784301102 0.26531773552 -0.575072014471 -1.89081168738 1.34387466062 -3.09192758962 0.988458450213 1.02664803267 1.31906957461 -0.43478473405 -1.13445526608 -0.870598465492 -0.58095983313 0.452606665746 -0.00513730886005 0.0430697927891 -0.114983426377 0.0853493808999 -0.60008269111 0.00311113185425 0.22829565099 -2.47616683506 -1.28266186124 -0.258199696201 -0.406032664938 -0.338977211718 1.37368703336 0.666870824488 0.997741553516 0.384118977451 0.565108386906 1.80517311511 -1.53745689357 0.13872159743 0.495730934818 -0.202516168306 2.0112850938 0.632296933717 0.171646324106 -0.727263462711 -1.10097509478 -0.819824672102 0.890134519939 1.3424070761 -1.82369414573 0.411940914673 0.162827633308 -0.455388000901 -0.724365203901 -0.229187575891 2.09819982759 0.580973850625 0.572361138054 0.424631751729 -0.0326332972216 0.336256407422 0.238382237571 0.680621968508 0.201754100841 0.313127197969 0.265721347596 -0.197082884639 0.518011942942 0.191482623422 -1.3395871638 1.03555385291 0.598562449801 1.01755624285 0.057456947542 -0.973970500328 0.220118182639 0.91688952326 -0.441332249512 -0.273526718121 -0.310919502411 0.482395034032 -0.268760950498 1.37114745669 0.772688888893 -0.968905275448 1.14278246862 -0.476545381247 -0.548664369505 -0.195290855029 0.622938104727 -0.0238273047721 -0.949301948954 -1.24547548356 -0.633103351731 0.270994823437 -0.143321437476 0.148945808495 
-1.3395986389 -0.614511316893 -0.463032048896 -1.55915530484 0.97821780065 -0.996337338381 0.233202603348 2.2422652041 0.0390145135474 1.08618698836 -0.723905294793 0.503496592576 0.430808535737 0.0728265706757 -2.4637463201 0.224536860186 2.00711009759 -0.023053043861 -0.507329876717 -1.12455912257 -0.368468747552 -0.935282215583 -0.489929424454 -0.0662349996613 0.300686619806 1.78086800233 2.14663752918 1.7023813453 0.303367027349 -0.916797502991 0.529464735534 -0.616178392854 0.646453357679 0.00517926393564 1.80592647876 0.54210620676 -0.482114286404 -0.888111537877 -0.44450551139 0.203026294066 0.748374262615 -0.340383116726 -0.188737845341 -0.341376554454 -0.431525234331 1.1503644208 -0.491592888935 -1.86506496332 0.0624680595151 0.285149366566 0.737349093865 -0.418024962248 -0.384702201301 1.01167982598 1.12490301086 -0.318522738331 0.643169270812 -0.904461889729 -0.287436144537 -0.750212986053 -0.699069116724 1.51308119948 -0.290959900911 -1.47634386255 0.0128759589876 -0.744368469792 0.767486074016 0.0712521036472 -0.355632972693 0.597290741704 -1.24673489406 0.688370887912 1.97685329834 -1.21556255413 -1.02779713911 -1.03364265785 -0.956381541632 0.145876477084 -0.821282268476 -0.677350280346 -0.804325357286 -0.667157123082 0.775986181223 -0.285081956426 -0.910372502865 0.669415871281 -2.73672629362 1.16376421866 -1.46498657394 0.406403202128 -0.471360554875 0.195176275226 0.587423703959 2.75378828906 -0.522944307853 0.902884866591 -1.59339291185 -0.304987802621 -0.501309601973 -0.403470552636 -0.230402867774 0.535979578406 -1.12641586902 -0.316900646864 0.0422568612988 0.986153911128 1.04980846913 -0.0902342035694 0.680306287839 0.385611497937 -0.547308676301 0.49130376582 0.331330875272 0.443000127497 1.03760878399 0.25751955122 0.804444518177 0.541329018221 -1.01624480753 -0.796744378049 0.121225526911 0.646021245961 -0.527104344143 -0.0889941210572 -0.291777766164 -1.76852396108 0.448436153972 0.717234683404 -0.38660370029 0.626847394378 0.368880257299 -0.670103731219 -0.311030725836 -0.0125497671516 0.313675700478 0.376983389315 -1.78592602774 0.0549095720854 -0.772561778657 0.58587414555 -0.371348958048 -0.0568910721713 0.236890184459 1.67977533243 -1.24972195267 -0.493347902172 -0.0848891106854 -0.157758257472 0.310014702532 0.62414087835 0.726292715169 -0.162965937957 -0.0966636021278 -0.564336452331 -1.9878157672 -1.39788332448 -0.271695364384 -0.138894674586 1.52508947029 -0.491825407005 -0.676953014462 0.81991207142 0.145852284082 1.89264445626 0.754750367111 -0.81286299143 -1.81263942165 -1.1138955032 -1.07443210668 -0.284502610588 -0.465984956243 2.04153791885 -0.993345807701 0.941589806178 0.29109251269 0.562144224654 0.0904492719353 0.688924256407 -1.05337025652 0.719211626918 0.609150233868 0.378850707574 -1.11698121465 -0.0170349679994 1.12099211906 1.12877408907 1.38967662035 -0.601822420324 0.744650469768 -1.4619704085 0.429849446172 -1.44660676013 -1.49151118112 -1.27863060177 0.301358572743 0.673282663126 0.0932410696386 -0.295310198637 0.339086506338 1.57558464801 -0.901978029152 -0.61711534675 -0.34386490421 -0.136485737324 0.944701663706 -0.189112976642 -0.442487730513 2.7923041521 0.654549124733 -0.205501670805 1.82472773656 -0.658680753849 -0.629986292133 0.280826867912 -0.754543634371 2.07698441729 -0.650171347767 -0.489935351167 -0.778858866342 -1.45710016756 0.553370421838 0.644365514883 0.549125372886 -1.34351168555 -0.654835287325 -0.971211794667 0.717302088654 0.398497875664 1.2008498772 -0.525508804347 0.0509001738272 -0.6669463479 -0.197879342313 -0.418357988775 -0.232071357431 0.23163059435 -0.930790604604 1.39396535573 -0.865427794941 0.0807615520321 -0.53047037787 1.28515797076 1.40947958421 -1.2772163595 0.473176925006 1.29405221636 -0.0530388790446 0.034747461303 -0.136629352923 0.247387514756 1.22711927908 -0.0888184501607 0.989894882876 -1.64062197165 -1.48765734889 1.80063347563 -0.540409974023 -0.574587288451 -1.44742281632 0.517346302183 0.7225753323 0.27187077499 -0.893914178333 0.312030083513 -1.19891855116 1.14104719814 -0.848422490568 0.746632777964 1.92846419695 0.405393064849 0.201459605863 -0.609405288182 -0.458869599956 0.140600360177 -1.56511485428 -0.409191509051 -1.8374075758 0.75842425629 0.864230526322 -1.00315636276 -0.737888655376 -0.511247694453 0.957067382977 -1.87622947418 -0.89803691281 -0.811708563169 -1.0273143658 0.59059586003 -0.586870159314 -0.696685713446 0.854765564063 1.27316910326 0.271352494883 -0.62875020838 0.914784873761 -1.35742335578 0.722165654298 -0.237021134198 0.622311922056 -1.32244722917 -0.152141558162 -0.206933400153 -1.56773677248 1.63108845129 1.96827479537 -2.14255496037 0.568866333296 1.0723492749 -0.667085506109 1.22845017496 -1.48054994513 0.429079445127 0.162401161622 -1.11687259451 -0.308577971294 0.344355617591 -0.0711332961278 -0.242498515889 0.462877647893 0.375279145596 -1.07616372621 -0.28377587636 0.174945317087 -0.66811450069 2.11639355609 -0.417409386843 -2.16018179998 -0.866836409853 -1.313641498 -0.710953073697 -0.382315353369 0.21626222871 1.13396637129 -1.42965020478 -0.76063574612 0.792257337663 -1.89042754932 1.70356005151 0.415318623291 -0.0143325266843 -0.167912290564 -0.0682820339333 0.897186646108 0.363543240664 -0.163478747265 -1.45290516101 0.975355527032 1.26892788421 1.41370816734 -0.590834502259 0.511213144073 0.111839166738 0.891657457349 0.261900156638 -2.052924522 1.19344709543 0.432687468348 -1.02574294584 -0.160905207826 0.739167344946 0.495901873552 -0.653943937626 0.853070326728 0.128367856737 -0.250474087291 0.556268096436 0.51012150378 1.58954900628 -0.76970557185 -0.354480874558 0.775298465405 0.742034972352 -0.150042640486 2.06355731057 0.56187135231 0.331233955704 -0.263647189116 0.443721999156 0.242079964712 0.269313667497 0.422672208266 -0.0417498593792 -1.0593400915 0.299200892995 -1.42701484326 0.00579520423486 0.30355676526 -1.48692896092 0.837894900671 -0.193864737308 -0.202956587383 0.919509202493 -0.330594270459 -0.233835636204 1.19070853208 -0.988566282001 1.12939882714 -0.394042059795 0.732451514461 0.192005972797 2.01940441332 -2.09328090988 -1.50512377529 -1.818707506 2.25001108164 -0.900459338243 -1.0697108751 -1.01611629562 1.60574570093 -1.24343937132 1.04319438918 -0.109598523998 2.01523251775 0.639365678122 -1.25404760577 0.299606165507 1.57037688316 -1.61412949777 0.753321485639 -0.00436119338636 -0.78603924784 2.16224113391 0.733134513159 0.286601285156 -0.230090410206 0.819916819343 0.345003470775 -0.871710188349 -0.441410174359 -0.52160035193 -0.345544488172 -0.386749647204 1.15107900416 -0.450295482976 1.8124998326 -1.274371972 0.406735377421 0.388783321147 1.63299714027 -1.41486632248 -0.350741404889 -0.0801679151724 -1.18806405441 1.41673387125 -0.449082869034 -0.0614740117625 -0.471762592748 0.00725698799291 0.223731937808 0.604443154934 0.498957651154 0.482390488701 -0.609523059331 0.723992771691 1.02185879406 -1.44288764232 0.307244664029 0.770754530176 -1.45989179071 1.18984526141 1.39973451988 -0.954099536764 1.35918224096 -0.633622586206 -1.27959513595 0.731771057547 1.14152887679 -0.419452952151 0.426209102385 0.59057860458 -0.265521915255 -0.285282083792 1.20977701342 -0.440148905984 -0.952221175841 0.1722509829 -1.04287050514 0.0476124937656 1.16856484914 -0.305106352147 -0.857144196642 -0.0810145793351 1.11885559543 0.958509046647 -0.570325549374 -3.11260369304 2.04094195092 0.267586159095 2.50446094288 0.541247149792 0.895721431409 -0.917651994502 0.878745582603 -0.201365210842 0.295451320202 2.1261184733 -1.26157798384 1.4615760078 -0.217951428566 1.12475888953 0.353420590873 0.5210623807 -1.06824687442 -0.831299913199 -1.64174061813 0.784099713882 -0.952869775017 0.865363410001 -0.433669620988 0.257676093017 0.206698896644 0.864806685022 -0.627549113437 -0.711099576044 -0.0711308609307 0.327445311979 1.24989816002 -0.0353283481104 0.164646864014 -0.901689120873 -0.8306911982 -1.0914163438 -1.52225504554 0.867925972053 0.682791055512 0.608795706074 0.677535394021 -0.141760567529 2.33326827857 0.231450043592 1.48276330658 0.0761812254418 -0.518890619046 -0.5859580584 2.09795154655 -0.615198392984 -0.494267817848 0.173782077408 0.469868007705 -0.641782417854 -0.552058250547 0.0872067502186 -1.68292937925 1.21479536933 0.329098822956 0.489914854662 -1.10638658848 -1.12833921687 1.11186687197 0.790262741848 0.214251688654 0.447642919315 -1.35597623041 -1.49405640912 0.0728699384813 0.0446582892506 2.21521874433 0.653715326108 -0.98209237758 0.85643895882 2.07300663574 0.572491918717 0.53094330247 0.204257345708 -0.262379856821 -2.14815384656 0.760568969322 -1.99011092499 1.34461941538 0.540967342117 0.852064721651 0.287165311906 -0.000391913092595 -0.792821622652 2.82287979292 0.553288714608 -0.229746386938 0.152299271573 0.120433217659 1.16157644328 0.670601359076 0.517498219076 0.766008264865 -0.106325289669 1.13199745935 0.977868166298 -1.17113818535 2.15299508329 -1.10504235093 -0.0584489298273 0.310643216611 -1.77551948937 -0.7657944372 0.0816586351297 -0.990447340438 1.34671350199 -0.269667168142 -1.51646594749 -0.702185404103 -0.20789664148 -1.77495801467 -1.18693788632 -0.642321837036 -0.829256614993 -0.172837838348 -0.168312474979 0.0987348068457 0.731203705244 0.99434937925 -0.616048835515 0.506082633852 1.44894535731 -0.105487675341 -1.05658920245 0.78504685942 -0.320192124445 1.73975060047 0.405484935197 -2.13662506479 1.03969794077 -0.778613707452 -0.954132910188 0.0155988230152 -1.11259542287 -0.588493416718 -0.223780315263 -0.196926623828 -0.131495021325 1.31540551964 -0.869627679515 -0.336077196343 0.374808219003 -0.473581357536 0.968649785431 1.27624992868 -0.321894294837 0.656477590298 0.259227253145 -0.928972271236 2.85341487666 -2.08730746461 1.13402175614 0.519368726086 0.772849253158 0.0557224322288 0.677006045627 -0.554275030444 1.47599709653 1.54433747756 1.73292173588 -0.729723986226 0.999056476894 -0.344363846581 0.889989885126 0.661002969001 -0.294163484184 0.952797006631 -0.254588584655 -0.214239538041 -0.558030001128 -0.61130965846 -0.654661405587 0.669813911677 -0.701536176949 -0.955930308433 0.291277790558 0.0466093785841 1.67417747947 -2.27611029276 -0.882470352699 -0.00539323807 -1.77963302499 0.0492487489102 -1.0545044763 -1.20768560039 0.181807797084 -1.03095563043 -0.379231235697 -0.635630675756 0.555941875698 1.02175659227 0.44412897564 -0.46920141245 -0.245314980044 1.51364257845 0.0487860100752 -0.393405297689 0.690217378564 -0.160397687508 0.550357131366 0.0999703003305 -0.0507159904821 -1.19478869019 -0.434040900691 -0.522167239648 1.31302215351 -0.220612900249 0.818745422855 -0.438977486677 0.495664294343 -0.296672445176 0.39890999052 -1.47038003545 1.0516953516 0.75348453943 -0.641152719158 -1.38775823356 -0.0508252673551 0.0842049261027 0.518317830214 -0.136071469791 -0.30929994325 -0.57988257396 -0.0901859763832 -0.0233212414275 0.549154732686 -0.6229606491 -0.291861900129 0.769171294286 1.49321935663 1.18822471541 -0.992052604319 0.0142046752267 0.536158345199 0.917398380779 0.99846656814 0.724771005593 -0.181085858015 -1.93351475889 -0.551855841866 -0.785763736392 -0.315241354378 -0.136218026266 0.258621920522 -0.545328862242 -0.368606166475 1.08037822565 0.415582479801 0.382744750744 0.768949087414 0.529424196603 -1.81156808509 0.435123048892 0.310591790293 -0.814441519867 1.58787389326 1.08688189126 -0.0506796630804 0.453392460806 -0.0977295106113 0.446159203891 -0.000863123567354 0.763592555468 0.368084972779 0.6431454001 0.0335141497917 -1.08320381875 -1.05381547475 0.876353112088 -0.31186160149 0.654005998148 -0.868946875964 0.293399193646 -0.448484252134 -0.451296170721 -0.833206673951 0.600882984436 2.17432350557 1.08004697286 -0.0538044928204 1.92023530847 0.945717595319 1.44107146192 -0.244249855496 -0.325912101902 -0.226193208823 0.549173429088 -1.65573424247 -0.987097005911 0.629757457882 0.10211966687 -0.189224649945 0.566767117598 -1.088896654 0.109546245744 0.709472350715 2.50492198845 
-0.638735363161 0.641057196835 -0.49676122267 0.0111329457837 -0.479122521911 -0.0113788102485 1.98138419645 0.846933388121 -0.497713002619 -0.619905425287 0.806108759812 -1.26192015236 1.61172978099 -1.06177212362 2.3974025275 0.591896701342 1.70325579559 0.738452503518 0.337180219386 -1.12845895784 -2.25995468844 -0.395959929351 -0.557058362797 -0.45672052568 -0.462329556399 0.761932373728 -0.463665010551 -0.0895681047137 -1.03837518219 0.810688921325 0.161820983249 0.660577658034 -1.08671818169 -1.34856472485 -1.97593668347 0.441116468801 0.471364898611 -0.157167925294 -1.61365280857 0.0128620230699 1.11692313643 -0.522635682341 1.79032255036 1.85074745414 -0.529953685846 -0.747947867677 -1.41385203299 1.66355758475 1.18159055732 -0.991645596761 1.5753839032 -1.80973912712 -0.841346062503 1.4250480569 -0.31497919868 0.325790839835 -1.29711024516 -0.0704906772828 1.43005834183 0.677810614859 -0.853561733111 -1.4990335976 0.561076189524 -0.346338860486 -0.404190550325 -0.537818326235 -0.174052020506 -1.17202345504 0.331183192978 0.0377660168318 1.18614583844 -0.480497171895 -1.71564676765 0.0584962940027 0.378620568036 0.827188132554 -0.771241410405 1.40069689446 -0.565156876939 0.0419717020478 0.894182877953 0.217594768143 -0.944236635003 0.298303465738 0.0842341540096 -0.301584098389 -0.0351475812798 1.85366854141 1.70352340693 1.26935486519 -1.4354624128 -0.818386340013 1.62163768126 0.777352106115 -0.975567264322 -0.904645287401 0.504275221577 -0.79810965077 -1.00767605227 1.0661127259 -0.920753339226 -0.470598820945 -1.55160657085 0.110913075173 0.654440424552 -1.93971129116 1.15558264858 -0.693790075649 1.2833711236 -1.75684885154 0.876778615287 0.510631322395 -0.650116441243 -0.843382603649 0.868787293057 0.440621288431 0.393687122942 0.139326879063 -0.438278332917 -0.770708360758 -0.78626945339 -0.444532013371 -0.74350803217 0.970186308779 -0.904934114887 -0.710444517535 -1.21408080264 0.282338917828 0.0776169842357 -0.428951623199 -0.0900569625195 0.167426339139 -0.46431897334 2.20913546565 0.642874494705 -0.0967133098096 -0.209634430389 0.592777411471 -0.0682938807195 -0.90414997253 0.801224498866 0.810149344984 -1.06678863962 -0.439794353331 -0.0417861613528 1.25484215754 1.54855345479 -0.0516311054593 -1.20896163363 0.741198535129 -0.273856539639 0.489358152199 0.541836746927 0.789856086053 -0.0111991033248 1.52012472688 -0.340797033944 -0.908198863394 -0.627671872896 0.191893397068 1.0402503522 0.595736516731 1.5438940738 -1.60784281498 0.663419938727 -0.215532456805 0.045571459049 0.673042197867 -0.854559428274 0.0170939089153 0.259064270171 -0.781420046903 -0.406074264097 -1.81947387745 0.157187129492 2.03821872398 -0.377034066792 0.818998806325 -0.323995526998 0.393212269532 -1.00442709888 -0.478146943055 -0.236634956149 -0.892333693094 -0.390718896168 -1.11076234255 -0.0457580351195 -0.408854873343 0.379080386534 0.600140427886 -0.955767276628 -1.75551612072 -1.87501396128 -0.571587189124 0.468419272475 0.973792333957 3.56652570962 0.822379742224 0.807277066052 0.187847653965 -1.6764402351 0.603485955251 1.58633954954 -0.112057159999 -0.528250774385 -0.606088905578 0.782335477746 -0.156914843875 -0.0528878879339 -0.121523577932 -1.12659948057 0.290488723758 0.482927713099 2.09797978657 0.816575798275 -0.704823273936 -0.0262741931134 0.634125849663 0.0081172924145 0.883508865135 -1.38927336445 0.303879435517 0.349471690479 -1.19550142797 -0.228012911836 -2.8797107371 0.939525126061 -1.24166410195 0.281045013442 -0.271766642488 0.886340266295 -0.376739626914 -0.148258565362 -0.818959646559 1.76253894394 1.2781170038 -0.420340067873 -1.25606463424 1.17115115192 -1.63220377845 -0.808640050585 0.126248357364 0.0579684020457 0.169133929116 -0.355864911067 -1.95142190938 -0.832216736792 -0.450135751468 -0.127049426908 1.0634158392 -0.870671967473 -0.476050250645 -2.63262323159 0.733686583577 0.156623824556 1.47722522043 1.77508637407 -0.496820218621 -0.355879532031 -0.073165649593 0.248635539607 -1.17264452229 0.433979923155 -0.530746516288 -0.405439796481 1.56959539019 -0.784183852625 0.616462199655 -0.108174204139 0.803759717613 1.84327813506 -0.163896639416 1.59759805784 2.60503749057 -0.23924236542 0.364244011658 -2.21324981813 -2.89214520768 0.716153107073 1.18019070543 -0.245298919819 0.350037642459 1.53787025136 -0.383097505625 0.136295870829 1.09372930192 -0.449122642123 -0.393301689319 -0.469397816047 1.25911951119 0.43313511547 1.92039953522 -1.07885882043 1.3239094879 0.689626458326 0.0730947948959 -0.335790960971 1.04501939332 2.01850370398 1.75326069391 1.04741134949 1.31373682051 0.897031325135 -1.17092036915 -0.996808737265 0.453586080776 -1.63466674816 -0.15647539486 -0.968424849809 1.37786708628 0.987684804764 -0.885808668537 -0.910906990417 -1.36964857265 -0.0450677150935 -1.15300289765 0.703989579013 -0.215839907054 0.749737193932 0.241918884866 1.06242973764 -0.152470765146 -2.48772229877 -0.731832571891 -1.36738642396 -0.310828640633 1.31070595924 0.120168052841 1.06537849012 0.252124647785 -2.23945161396 -0.193858466561 0.892955330043 -0.310808739711 -0.606905133175 -1.13114693622 1.97989752152 0.605840279809 -0.915300209342 -0.863490828643 1.62861474935 -1.22422234405 -0.749410124021 -0.90800758321 2.03325691074 -0.932320934711 0.444007874571 0.107650294306 0.816627673326 -0.57781555111 1.35998703664 -0.518471295558 -0.781008430027 1.15188400062 -0.529678589662 -1.54924805641 0.710112142997 1.91743822647 -0.176088606083 0.222003564149 -0.449521272384 -0.295149344512 -1.23102646029 0.993423275347 -0.507485060024 -0.472253195719 0.88100150968 -0.438269627082 0.729438997778 0.982989897083 -0.695775835839 1.02544773013 -0.0524723101716 0.392241613088 0.365206906107 0.801357306252 -0.869673944703 -0.257512460156 0.0923667968607 0.718762147894 -0.0536485211563 0.350217937919 -0.143825363129 0.865293789845 -0.328411622724 0.358461489635 -0.894506273274 -0.911379116451 -0.900204973335 -1.34106614848 -0.598551380264 1.97363972255 0.0302363027116 0.694932501441 1.11678468379 -1.7016004751 0.792178030077 -2.45041257335 -0.208108896582 -1.03467414748 0.762480186443 0.784788324555 -0.360706603361 -0.0971104971839 1.18895314342 -0.137492707255 0.333278669232 -1.23822823228 2.34643818055 -1.57130472663 0.239975742772 0.698487094571 -0.122375615731 0.952992563612 -0.548681705978 1.27599514021 -1.1392120691 0.215343196738 0.178173932338 0.545419847426 -1.04471029714 -0.436912451553 -0.548863962004 0.313975158648 -1.46087449561 -0.669242066513 -0.354196799022 0.837541874989 -0.760373491484 0.289874718074 0.589505883453 0.156702872253 0.687480694677 -0.147831368387 0.120328512571 0.639606648986 -0.525519586739 -0.129125364987 0.735038232394 0.0896290816865 -0.79309956365 -0.293268749613 0.577017240456 -0.249849390307 -2.0750931303 -0.740107855256 -0.911291763952 1.40095434465 -0.271813853163 0.373167970516 -1.57202240436 -0.0202730557356 1.14542138426 -0.607925545227 0.681512869335 0.971702622721 0.326066883918 -0.444961482052 1.11876603728 -0.422996017301 -1.09100364614 1.28648344248 0.739757441203 0.854149767009 -1.26242965914 -1.75070045715 0.260786779463 -1.71126483828 0.688323723248 -1.46268227807 0.319489744965 1.81521726614 1.66760337371 -0.109807418577 0.799235876601 0.365272476435 0.373968282512 2.13133404 -0.208688620021 0.668505125545 -0.160622472724 -0.544442172817 -0.350851918408 -0.406396467804 0.0830544399078 -1.73763820674 0.56695153597 0.3199611314 1.25221403129 -0.230352874509 -0.266206845096 -0.059156690736 -0.186103495644 0.799897349464 0.621619213375 -1.42524136959 1.05667339706 -0.50101867908 0.146137839076 0.175853454092 0.0708912964105 1.11356180553 1.76121800916 0.152783986524 -0.351218804136 0.324642035073 -0.768184779801 -0.498493239373 -0.194978782024 0.987559485879 -0.521518235906 0.698689507553 -0.581373230648 -0.287630918073 1.0728692336 -1.80257376367 0.119704573185 1.62205466753 0.955444208209 -2.32743774135 0.451501782864 -1.59939253082 -0.734558327795 -0.306857441779 -1.17514969239 0.792224874224 0.0145568892583 -0.700022300386 0.307881852328 0.157924684704 -1.03443011629 0.669239887384 0.611071363733 0.871050135332 -2.15521692989 -0.174321715833 0.476532077323 1.04960847378 -0.325716004921 -1.66887821352 0.670893134028 -0.517157282492 0.103634019614 1.41568069373 -0.674779393761 -1.99948927685 -1.29080876969 -2.02936560199 -1.15029966309 1.12113073156 -0.308807118347 0.228941262209 -2.53165976376 -1.9084260337 0.0814119873585 -0.92832469326 0.724553650445 -0.816381607894 -0.510435918777 1.71088785807 -0.270938509706 -0.278395614119 0.534929672804 2.04460733418 0.0393978116181 1.35398560805 0.326043264399 0.87769597931 1.83208951383 1.51746178518 0.152847518279 2.17989300206 -1.39014474493 0.109440852624 -0.831403205962 -0.743627214425 -0.198175458415 0.614729100128 0.760845942503 -0.108054498033 0.484275355046 0.729456176573 0.773998812982 0.0589999576266 0.31179134074 0.23005146048 0.090234131585 1.1156960707 1.0484524642 -0.481389217936 -0.476268505436 -0.397424989098 1.07988404734 -0.902551331022 -0.694186300676 -1.72614037735 -1.07752148495 -0.997420619615 -1.26956240758 0.828570508159 -0.378703100254 -2.07962909133 3.49280606596 -0.543320397817 -1.03240737742 -1.00204072134 -2.49107398826 0.285621153898 -1.26654255225 0.817248311594 0.753522512757 -0.419210830439 0.358951949476 0.699810935181 -1.3675408727 1.85138843833 -0.270956568157 -0.845451631871 -1.00559253026 -1.29071983807 1.55112313412 1.43496660907 0.278568082634 1.70396956233 0.271685067033 0.156273868219 -1.03185593043 -2.57999997938 -1.22098839746 1.2413753193 0.313300179343 -0.922795807615 0.903651994205 -2.02183927261 -0.443155651073 -1.05715617002 0.831905473607 -1.5499665391 -1.17143322987 0.484153310127 -0.0208988267606 -0.0481480008375 0.575984163834 -1.81667537262 0.19051150389 2.29062060855 -2.35674378295 0.231254038537 -1.2293025254 -0.0597290530767 -1.09969262349 1.11448515184 -0.469402416669 -0.396367518384 0.334490704674 -1.80161328339 0.623104072608 1.70177669164 0.590339327295 0.991570757094 -0.332145401713 -1.17397164278 -0.097540466311 -1.44808023743 -0.756558025354 2.25717146907 -0.785163441354 0.887843911802 0.217184210168 0.940801196598 1.37028126833 -1.02648297517 -0.240859348646 1.22995741206 -1.21718583345 -0.916561308089 0.297844400526 0.0521681848295 -1.48270290944 -0.272488409838 -0.5301800932 0.601558624716 -0.685629938872 0.488069235747 -0.694928770845 0.632129389973 -1.45894563771 -0.560841644493 1.42918792563 0.562496626893 -0.542032625969 -0.644027700408 -0.994197993248 -0.668657397666 -0.4835997221 -0.450812861153 0.715631933394 -1.54314704841 -0.73764005714 0.20507049128 1.50346984228 -0.238192584875 -3.05489986514 -2.97640159421 0.547237661428 1.3156545688 -1.13424064072 -0.467898835946 -0.661888646006 -1.10665342913 0.286761198749 0.654146856765 -0.343719398973 -2.74225209582 -0.098134825186 0.977778422135 0.292430412441 1.11620140836 0.400113538613 0.213518462121 -0.302400545818 -0.820056153477 -0.016761966207 -0.71910126119 -1.59367555346 0.196578494412 -0.780914327505 0.0255836041463 1.15022972919 0.937732661316 0.625799008448 -0.373014699243 -0.554643689788 0.0356609316009 -0.890882522045 -0.182423680998 -0.174653876437 -2.63003187136 -1.35000867002 -0.390323256522 -0.146899109008 0.750777966988 -0.979797873096 0.265153836809 2.37857856874 0.0627764245531 0.117029914983 0.843454662992 -0.444536573679 -0.988599549243 -0.947236876604 -0.953598158028 -0.62052067601 -0.335875243694 0.930389199192 0.149801455364 -0.991188459661 -0.640686497272 0.0238565053979 -0.929872813003 0.142968773847 0.373716657463 -0.0360797814109 -0.301698689558 -0.53751409536 -1.24607936265 -1.04742375729 0.693929426295 -0.0485887943059 -1.45838910991 -0.153910699638 -0.324585023929 -0.453537537912 -0.784033130292 -0.606815838816 0.430711491752 -1.60765285216 -0.00329546967752 -0.181702021253 0.579137091857 0.284686816407 -0.359812673223 0.914353581091 0.768280280724 -0.978451848018 0.807887053741 0.522077533635 
0.1006159968 -1.12687589386 -1.27089277085 -1.29969634756 0.195346658857 -0.645573987297 -0.189232727673 -1.11109642545 0.292741794867 0.772311443942 -1.07054139269 0.266815518554 -0.273719430386 -1.81038633379 -2.5349763472 1.28429084764 -2.51126719841 -0.20960947319 1.44497314346 1.82345206421 -0.709690782566 -0.150412536394 1.00227427825 1.33287200453 0.618804289418 -0.0190455205701 0.995080666286 -0.86576254633 -0.122851252057 0.776989759086 0.142339333544 -0.495075527901 0.112273130217 0.296765876143 -1.28546617315 -0.0933950389838 -0.501765968703 1.70552719142 -0.463717207678 2.21487332245 0.0626539776917 1.15151430265 1.26164080382 -0.10009220929 -0.0291689609365 -1.25211133278 -1.23853447104 0.0349859515234 -0.615628574531 0.695418637426 -0.369764097125 1.04105573066 2.297032078 1.38612967713 1.19943685682 -0.43467009111 1.11780336473 1.59044434419 -0.36107317642 0.796210995721 -0.834124107237 0.18010150008 0.974832429267 2.32095406823 1.75378404762 1.7363398027 0.455321078518 -2.22567343679 0.524266858066 -1.32309283766 0.553450184823 0.01317289189 0.292627202733 0.427891676837 -0.0695753308561 -0.0154963067306 -0.0935298704925 -2.33604937799 0.520691220809 1.06634105872 0.659515666367 -0.27972815538 -0.0483900459949 1.20250708702 -2.94451775523 0.157091766225 0.225996064785 -1.49148224139 0.113547081347 -0.594474758155 0.352804406879 -1.67824439435 0.558642054494 -1.12124203686 0.773469532862 0.022184524951 -0.0796851162929 0.287452930408 0.650020885162 -0.17544892152 -1.42201860751 0.997595524218 -0.758338892604 -0.667458843287 -0.451467155586 0.474729446689 -1.13485892908 -0.581827503762 -0.811675325179 -1.1727642977 0.910954515256 0.46386535869 -1.64200362929 -0.856503746421 -0.0933595750544 0.256901930228 -0.0535002483741 1.11635403375 0.289213994671 1.15081401049 0.101679496568 -0.619384790147 -1.20666258072 -0.238027286613 -0.156707991266 -1.53259530567 0.995749669093 -0.109678334121 0.575086040096 0.137416302447 -1.70247043759 1.10865391508 0.496162966639 -1.23396935313 -0.0808358551247 -0.0657793829332 -0.454697349914 0.288394297986 -0.0523164021214 1.52224807183 1.00055104363 -2.13505582206 0.747876492725 -1.40466883824 0.573909693934 0.368120584017 -1.7778395376 -0.587691184072 -0.191606324745 -1.1743932174 0.056450356193 -0.000318655483211 0.490449437492 1.53012978745 1.46365925006 0.170702650882 1.98969910058 0.266754830431 -0.201277227516 -1.15583244912 -0.676363392223 -0.169138404712 -0.212826038335 -0.0861483098046 0.303340261539 -2.54310675157 -0.249997317095 1.98072322774 0.696967818364 -0.327443120415 -1.07937801342 -0.401130540847 1.94728250463 0.980786746085 0.0913154972015 -1.60340207449 1.94819690839 -0.372893213226 1.47642562756 -2.44395161273 -1.27596403365 1.12453323101 0.48336955095 -0.111319464898 0.0454230643373 0.918390995358 -0.711598881492 -0.047406542026 -1.45694322168 1.60868434164 -1.13751595966 -0.875883759325 0.979044945112 1.44526930475 0.735672028532 -1.49735700275 -0.91543726658 -0.608955599067 -0.0113507585657 -0.712863037645 0.840187439638 -0.230350733692 -1.69927347433 0.847372080177 0.754768171997 0.200298166963 0.524727067504 1.35983996308 -0.467388027487 1.19574538052 -1.04692565185 -0.135283040733 0.414795627119 1.14711353415 -1.42282930571 -0.504423783258 -1.5873710508 -0.3672534893 0.12381536441 0.985557333456 0.905599740851 2.10330599174 -1.4513058125 0.770636811616 -1.65999067011 0.851822391165 -0.134235331169 1.73374546153 -0.681559516136 0.0967256297527 0.878844663549 1.25762961727 1.95051637515 1.32847873604 -1.4814602156 0.711915554914 0.870360009697 -0.311364388382 0.683386971543 0.34251922931 1.92025142866 -0.897215079269 0.819426707145 0.268532839636 -0.872354347707 1.26807950782 0.778701998152 -0.23084868453 0.00382738161028 -0.34014650662 -1.03795119105 0.868753686775 1.60462351688 -1.17688899505 -0.216689787217 -1.90655397427 1.12259816595 0.904177158682 -0.787838825395 1.17220992066 0.0311024566697 1.36216805356 0.0838743918778 0.118830186071 -2.16844722965 0.438281701534 0.154888035458 -0.402939962706 0.250647503583 -0.447501070176 -0.243724155888 0.775309380719 0.804394744232 -0.031724614162 -1.23313595939 1.21532576351 -1.21001979097 -0.330010961939 0.297121410927 2.47600880667 -0.275319565517 -0.0573413762547 -2.31146207303 -1.62341092795 2.51098029524 1.16900957117 -0.582711857294 1.10485979517 -0.382295383001 0.28678538792 -0.25751129615 -1.90454390835 -0.244438246812 -1.15069620029 -1.743199185 -0.462115816563 0.954363425676 0.124595676704 -0.413916007768 1.25781769486 -1.33043193871 -1.0127117624 -1.70358535352 -0.700278376504 1.33307882479 2.33430627979 0.415143439406 -1.46589231352 2.24897869612 -0.768301244727 2.2293291229 0.107702172252 -1.73620084089 0.0697739441056 0.81386230804 0.777928263749 0.197439537342 -0.209543017753 0.805425816378 0.327983034614 0.623284789758 -1.38085123805 0.126435785707 0.0155325747071 0.0690079073016 -0.95415513911 0.676584076379 -0.517711515344 0.404725137596 0.325150279619 0.1444825259 -0.0982483998487 2.00709210724 -0.414373278887 -1.29695809958 -0.123559627138 -0.596824637478 -0.112480677967 -1.83332635167 1.15923024519 0.808193356619 -0.858842735211 1.50628759356 1.24276210626 0.731142496459 -0.781781695165 -0.42700403578 -1.28956446659 0.27021335664 -1.17104939428 0.515311409896 -0.318574696415 -0.987904004046 -0.847161549483 -2.27450774296 -0.287368860263 0.610722253341 -0.411643432718 1.73351116205 0.440986164265 -1.47648763477 -0.669897711024 0.649651959201 2.01401691817 -1.81427017765 1.48705402301 0.167642185603 -1.08766396914 -0.15494668956 0.660018161221 0.145884631859 0.860978570993 0.571071697246 -0.227542859249 -1.79063221332 -0.529517188685 1.64885723107 0.147115623375 -0.435617465252 0.186608420382 1.06360681524 1.21135253854 0.105760921225 -1.27540668772 1.5112766625 1.5324185119 0.0677430216283 -0.705196011277 0.0585891646513 -0.351689540547 1.52324933152 -2.22406702311 -0.978424040886 0.29717003406 -0.0420596557495 1.19177176472 0.964242403567 1.3387843699 1.44169973308 1.82500569192 0.319177955047 0.0259192846735 0.0537939132409 0.627145371365 -0.865170870552 0.41452892792 2.25654905726 1.72352016665 1.06928046353 -0.0233726736721 -2.54671489684 -0.641075851292 -0.0974611363962 1.83895090738 0.460482591851 -0.22833393159 2.3420003249 -1.49227821017 -1.23649993423 1.39118377789 -0.464835605328 -0.263917685549 -0.404235889337 -1.32892733439 0.373587335998 0.0126652183661 -0.00739334471524 -0.909746167575 1.87796687591 -0.276704665957 -0.504086046569 0.446081215432 1.53641368567 1.00077531726 1.18594785122 -1.22746628241 0.917561576652 -0.844009805913 0.273394756623 0.299237600489 -0.107656031803 -1.00061222721 -2.13640197756 -0.306454376976 -0.199696646293 0.684049304345 -0.984703693893 0.71237386588 -0.755678793503 1.59034963913 -0.301772215042 1.14769099765 0.356492584135 -0.706537251078 0.689993569919 -0.101251312216 -1.00878865944 1.69985176639 -0.122880459199 -0.766374425747 -0.768694617429 -0.737482509027 0.262923031118 -0.0397425267175 -0.652030918208 -0.194023274244 1.53079895357 0.458414805285 -2.7393157153 0.762396076894 -0.565087960124 0.446814555969 1.48890954846 -1.075401374 -1.09359320682 0.261823828329 0.427948355192 0.338261144075 1.06626791382 0.481683916889 -2.24338150948 -0.466367917688 1.32246248813 -0.619570176409 -0.211593188156 0.313471978732 0.771604365479 -0.179301549695 -0.0277514267133 1.24067435227 -0.900762405301 0.982604575333 -0.29887195248 -0.469348895286 -1.14756283275 0.803207882649 0.495172880258 2.23215290699 -1.14772720096 0.38188267919 0.512954683671 -1.25891041113 0.732456282763 -0.453118915733 0.606779676497 -0.105950195945 0.245703648999 -0.724411813487 1.14489121008 0.533694793493 1.4991497077 1.20323099045 -1.15857477719 -0.775895615656 1.20715028117 -0.972062315751 -0.403963839153 -0.32818576372 0.537762451772 0.798203521101 -1.27418280126 0.662341608017 -0.818666034572 2.29542095996 -1.4169292215 -1.32193937474 -0.415860473926 -1.77198530576 -0.684142381739 1.30113552008 0.588384992071 0.305616379606 -1.68698795281 -0.448733056865 -1.08865951364 1.02800396555 -0.356563597953 1.18328576536 0.4679688586 2.08234829887 0.656001526753 -0.440001614595 0.540224883169 -0.376193041784 0.0833239932845 0.101642952872 1.04448024384 0.294663470303 -1.30744749728 0.929446214456 0.286694690121 -0.723985923608 0.241662674482 1.45760544558 0.334840509672 1.10388512458 -0.238376909398 1.11944182784 0.0639276401081 2.39757676608 0.763561818257 -1.01770634803 0.81523230618 -1.50193355925 0.696271290459 0.147704727094 -1.30138607234 -0.0268373238252 2.46720362897 -0.0815329882649 0.583385541192 -1.15376384826 1.21578682055 -0.187383018087 0.0116077667409 1.04584835811 -1.16890298702 -1.17900925846 1.53482443687 -0.729125712814 0.346334571347 -0.89148370675 0.101430865964 -1.3949442545 0.84312016754 -0.225153286262 0.2858073236 -0.625302204993 -0.00994332680319 -0.497357363944 0.31756791971 0.735297269556 0.999973014561 0.370265641771 0.352412599442 -1.21108418316 1.67285446934 0.235203331812 1.16222347274 -0.423970188979 0.416333764759 -0.546766439229 0.668073103455 -1.01184637161 -0.0323014482856 0.622880604212 -1.09655425661 -0.0673692151055 0.966354512219 0.854859432264 -0.109783001048 1.03657170128 0.526890188374 -1.98714779878 1.10170268235 0.0220818787338 -0.441189604939 -0.295991282608 -1.22755785088 1.44464720516 -0.572601391248 0.357902557233 0.388267502194 1.93634159685 0.0543968837499 -2.26076332435 1.54575386946 -0.548665590413 0.375706778578 0.414866776752 0.0174708244236 1.34878445333 2.35509943539 -0.283017836197 0.686271783625 -1.09855614246 0.234532976435 0.597068236766 0.12377767945 0.575936728393 -3.25140583135 -2.06134356635 -0.105816588054 -0.12479789038 1.05874349409 0.918289556499 0.836017855255 -1.12551745527 0.696156922548 2.07268920639 -1.31611960225 0.93349043172 0.570669488372 -1.30078745022 -0.19287095759 -1.29581908939 -0.538683994102 0.275646137912 0.793180581225 1.23633770595 -0.400335244984 -0.131446390863 -0.888568594931 -1.10414617501 -1.70207310869 -0.220718828993 0.311615403066 -1.62346764209 2.33249702602 -1.11201902371 -0.0779713960533 0.122478923891 1.43471747724 -0.172328721205 -0.397179403422 -1.51652881483 -1.1578271693 -1.04734302907 2.07329724749 -0.261641433572 -0.435884683285 0.505367342778 0.467664623139 0.0830591290922 -1.36420804744 -0.0502037213504 -3.73461163673 -0.147919866949 1.02815681413 0.23808113942 0.553425558662 1.5566218077 0.899334856972 1.13597522099 -0.697738015472 -2.07222014319 -0.768674218292 0.774107887907 -1.3262610686 -0.0416613110835 -0.985713537039 0.550418754964 2.58072695924 -0.27236847729 0.40063239124 -1.12410471084 -1.51599446866 1.61208105991 1.21140245046 -0.67568158735 -1.75164159906 -0.547715408944 -0.408565903618 -1.14798373948 0.916977918229 0.998952110789 0.607453547131 -0.341607731972 -1.01787667495 -0.141232132517 -0.595868401442 1.23841764643 -0.491264331923 2.43953366398 -0.407290859327 0.149891929184 -0.87499162562 -0.322604714463 -0.505977351265 0.47850284762 0.278390547707 -0.506242248031 -0.397069572947 -0.541152166046 0.102266566083 -0.268322821876 1.52310575702 0.0364360668744 -0.447357081564 -0.597502846382 -2.08988005092 0.744133940704 -1.14403694115 -0.49824477887 0.187211797275 0.71727712226 0.673115773187 -0.434659257109 1.65440880686 1.33250059662 -0.56174912101 -3.03215903328 -0.352097555481 0.204884088122 0.423437725517 -1.04594098578 -0.0752284042117 1.09978333226 -1.31173667168 -0.944212460433 0.726452816653 0.340962672603 -0.465595901616 -0.271722727657 1.43048135171 0.0127327624786 -1.31897529557 0.930670945057 0.511944236396 -0.668650596894 0.285160164644 1.28272201021 -2.47352325423 1.21061594126 0.0941887172873 1.13099334222 0.394626718072 0.322328151416 2.16147064204 -1.36257969327 0.601457355868 -0.439869189324 -1.26435015381 -0.775593856446 -1.46463484642 -0.147078934214 0.49142595285 
